242 100 97162
been 0.28946593403816223 -0.155052050948143 -0.31307733058929443 -0.29078933596611023 -0.46162036061286926 -0.06141006946563721 -0.2960071861743927 0.5113490223884583 0.17275293171405792 -0.12589018046855927 0.5187631845474243 -0.15080778300762177 0.15540805459022522 -0.21102537214756012 -0.19245339930057526 0.23443511128425598 0.23486217856407166 0.10355576872825623 0.11490897089242935 -0.26001256704330444 -0.16798712313175201 0.18930800259113312 -0.21713751554489136 0.10865294188261032 -0.13561376929283142 0.04055941104888916 0.02525363117456436 0.13501250743865967 -0.4361583888530731 0.17263171076774597 -0.12942202389240265 -0.03303737938404083 0.061058513820171356 -0.07351460307836533 0.13594527542591095 0.07239270955324173 -0.6037356853485107 0.578359842300415 0.11573674529790878 -0.2630664110183716 -0.6057655215263367 -0.14836400747299194 -0.1435994952917099 -0.3929743468761444 -0.13132448494434357 -0.6433884501457214 0.003711405675858259 0.23380352556705475 0.08113273233175278 -0.014391549862921238 0.31099095940589905 0.2566760182380676 -0.04656573757529259 -0.1020321473479271 0.25471147894859314 -0.27875155210494995 0.6618845462799072 0.08327633887529373 -0.3198840618133545 -0.3720627427101135 -0.28294050693511963 -0.055386532098054886 0.260312557220459 0.5197558403015137 0.1269311010837555 -0.34527352452278137 0.2411595582962036 -0.05824720859527588 -0.3794962465763092 0.22080011665821075 0.47118499875068665 0.013462902046740055 0.21671226620674133 -0.1252758949995041 -0.026936985552310944 -0.15595753490924835 -0.12003371119499207 0.14694811403751373 -0.06548788398504257 0.07662507891654968 0.6603645086288452 -0.37580400705337524 0.1219036653637886 -0.4527527093887329 -0.314914733171463 0.030867762863636017 0.42313551902770996 -0.22659572958946228 -0.33393117785453796 -0.055146247148513794 0.15723098814487457 0.3316698670387268 -0.019542137160897255 -0.2584869861602783 0.005698665976524353 0.15380817651748657 0.11367775499820709 -0.29222092032432556 0.047235820442438126 0.28241872787475586
year -0.1398795247077942 -7.513586315326393E-4 -0.36475858092308044 0.05058281868696213 0.04219033196568489 -0.23671172559261322 -0.019145578145980835 0.18849925696849823 0.1790039986371994 -0.08182524889707565 0.12535928189754486 0.24812662601470947 0.3726344704627991 0.13966961205005646 0.12760654091835022 -0.2543228566646576 0.053488120436668396 0.4488566815853119 -0.2271161526441574 0.027838237583637238 0.10017447173595428 -0.25412076711654663 0.4102417528629303 -0.2991419732570648 0.27931976318359375 -0.012460066005587578 -0.0295961145311594 -0.165120929479599 0.04100304841995239 0.05035267025232315 0.12994351983070374 0.01882908307015896 0.2862096130847931 -0.10257521271705627 -0.24527966976165771 -0.17948448657989502 -0.194085955619812 0.016331404447555542 0.3084470331668854 -0.2539205551147461 -0.10029927641153336 -0.5152690410614014 0.27475666999816895 -0.12755046784877777 0.07243549823760986 0.1610887050628662 -0.38104814291000366 0.06482633203268051 0.19620771706104279 0.49858662486076355 0.32202139496803284 -0.09066183865070343 0.24969400465488434 -0.08159145712852478 -0.009538373909890652 0.020762240514159203 0.006921709049493074 -0.25433605909347534 0.1678057312965393 -0.21263514459133148 -0.03235835209488869 0.12362910807132721 0.1316775232553482 0.10645733773708344 0.018386362120509148 0.13549073040485382 -0.10866055637598038 -0.051875144243240356 -0.14391914010047913 -0.1453023999929428 -0.07426294684410095 0.06904787570238113 -0.12105408310890198 0.0489213652908802 0.3016021251678467 -0.05148090422153473 0.0486488863825798 0.3765951693058014 0.059702616184949875 -0.05750001221895218 0.15894129872322083 -0.22893254458904266 0.12431036680936813 0.019963562488555908 -0.12732712924480438 0.020395630970597267 0.28592339158058167 -0.21411071717739105 -0.38627925515174866 -0.04823174327611923 -0.2980261445045471 -0.2863900363445282 0.5044712424278259 -0.19524769484996796 0.07133384048938751 -0.05085400491952896 -0.1690540760755539 0.30474966764450073 -0.04684371501207352 0.009031395427882671
about 0.004312125965952873 0.14554263651371002 -0.303821861743927 -0.006680822465568781 0.5681447386741638 -0.02192968875169754 0.10646630823612213 0.12437009811401367 -0.1726188212633133 0.020714299753308296 -0.04888525977730751 0.30777108669281006 0.16054750978946686 0.15617603063583374 -0.05121222138404846 -0.1936665028333664 0.5248444676399231 -0.012029941193759441 0.04199066385626793 0.012553228996694088 0.2835187613964081 0.01966017484664917 -0.26118263602256775 -0.07353764027357101 0.11169227212667465 0.27506306767463684 -0.19397808611392975 0.13500067591667175 -0.1998405158519745 0.34074047207832336 0.19577300548553467 0.07252676784992218 0.05800800397992134 -0.02395583502948284 -0.021172594279050827 -0.06921295821666718 -0.22806909680366516 0.1266116350889206 -0.42252540588378906 -0.3387289345264435 0.3042810559272766 0.2946507930755615 0.08880923688411713 0.192278653383255 0.12519998848438263 -0.043915923684835434 0.21025900542736053 -0.02254367619752884 -0.1217416524887085 -0.06896492093801498 0.31360942125320435 -0.13514359295368195 0.18229077756404877 -0.047068141400814056 -0.3266752362251282 -0.3721441924571991 0.04413265734910965 0.13046157360076904 0.035053763538599014 0.04768769070506096 0.14244695007801056 -0.010678835213184357 0.0022358151618391275 0.12398391216993332 -0.15940910577774048 -0.040804050862789154 0.08207876980304718 -0.4775443375110626 0.4249080717563629 -0.11176051199436188 0.3684447109699249 0.25286275148391724 -0.03891124203801155 0.19340236485004425 -0.046400055289268494 -0.07139304280281067 -0.2962518632411957 -0.03603587672114372 -0.11328648030757904 0.13116571307182312 -0.18634477257728577 -0.06977413594722748 0.3239011764526367 -0.1259876787662506 0.2575508654117584 0.09746118634939194 0.21029803156852722 -0.10952679067850113 -0.25724315643310547 0.27300453186035156 -0.19116470217704773 0.08152613043785095 0.03945652395486832 0.2513864040374756 0.1370827853679657 0.29590386152267456 -0.09211551398038864 0.2569161057472229 0.027883008122444153 -0.13514092564582825
your -0.5090453028678894 -0.040060222148895264 0.1097322404384613 -0.070791095495224 0.35859915614128113 0.323527991771698 -0.06627780944108963 0.15087032318115234 0.14740000665187836 0.47516289353370667 -0.25184765458106995 -0.18079563975334167 0.38764429092407227 -0.032544881105422974 0.023868493735790253 -0.2718561291694641 -0.4234938323497772 -0.08866441994905472 0.1852073073387146 -0.19223415851593018 0.11886753141880035 0.11968101561069489 -0.09984336793422699 0.20331144332885742 0.3030223250389099 0.41088631749153137 0.1263131946325302 -0.24645929038524628 0.1254761517047882 0.16673360764980316 -0.13773562014102936 0.22447168827056885 -0.2984960973262787 0.2998037338256836 -0.14924383163452148 -0.09242644160985947 -0.38674044609069824 0.07565667480230331 -0.13930712640285492 -0.0959286242723465 0.4039875268936157 -0.1952371597290039 0.2707918584346771 0.09806352108716965 0.0180609580129385 -0.10844580829143524 0.3039467930793762 0.07520752400159836 -0.07699695974588394 -0.007858354598283768 -0.038627441972494125 0.3564976453781128 -0.26988303661346436 0.11310553550720215 0.2190648764371872 -0.06640415638685226 0.08671563118696213 -0.20182619988918304 -0.03525514528155327 0.3842534124851227 -0.14859551191329956 0.36771440505981445 -0.2516428530216217 0.14824849367141724 -0.08627548813819885 0.3678464889526367 0.05747381970286369 0.0988960713148117 0.1310715228319168 -0.12829183042049408 0.18663275241851807 0.015351864509284496 -0.14451423287391663 -0.27112284302711487 0.06305135786533356 0.016153110191226006 -0.1842944175004959 -0.014293082989752293 -0.23311686515808105 0.1383557766675949 -0.006584479473531246 0.08408840000629425 0.13635243475437164 -0.16925576329231262 0.30657902359962463 -0.005468694027513266 -0.14783279597759247 0.1712113618850708 -0.013351737521588802 0.13132566213607788 0.20793777704238892 0.2700292468070984 -0.12275347858667374 0.04103174805641174 0.35141682624816895 -0.34361377358436584 -0.016113774850964546 -0.15945903956890106 -0.034267012029886246 0.27828487753868103
without -0.021537460386753082 -0.027407106012105942 -0.06163947284221649 0.17608018219470978 0.48740068078041077 0.2794288694858551 -0.047498852014541626 -0.10059239715337753 0.24707406759262085 0.011482869274914265 0.3808637857437134 0.06572521477937698 0.2053423672914505 -0.29794588685035706 0.09982714056968689 0.16554759442806244 0.043860096484422684 0.25195902585983276 0.2211068719625473 -0.07574240118265152 0.1086646318435669 -0.3102065324783325 0.14429083466529846 -0.3089698851108551 -0.03495509922504425 0.2134144902229309 -0.08296509087085724 0.10099590569734573 0.22000178694725037 0.08767052739858627 -0.09202173352241516 0.24264752864837646 -0.20225410163402557 -0.1126323789358139 -0.048956647515296936 0.11750813573598862 0.07903876155614853 0.009227870032191277 -0.03930586576461792 -0.3935231864452362 -0.23536080121994019 0.05890267342329025 0.26510268449783325 0.0974830910563469 -0.044456228613853455 0.0535946823656559 0.021053433418273926 0.0025220345705747604 0.1211823970079422 -0.004948225803673267 -0.08214763551950455 -0.2399529665708542 -0.05146750435233116 0.1685878038406372 -0.16066564619541168 0.061140529811382294 -1.1710151011357084E-4 -0.15885215997695923 -0.09031322598457336 -0.11705023050308228 0.09837974607944489 0.11274489015340805 0.3163624703884125 -0.034130439162254333 -0.04900778457522392 0.08874279260635376 -0.04580669105052948 -0.03472676873207092 -0.008161344565451145 0.11630752682685852 0.4659702479839325 -0.011388189159333706 0.005520274862647057 -0.1376066654920578 -0.0370594784617424 0.0787818655371666 -0.10308089852333069 -0.005382327362895012 0.2055790275335312 -0.10766533762216568 -0.09171883016824722 0.07384569942951202 0.1772279143333435 0.07825512439012527 -0.1448991298675537 -0.15094000101089478 0.08599712699651718 -0.3363739848136902 -0.060107436031103134 -0.04620503634214401 0.10431905835866928 0.12357017397880554 -0.12964698672294617 0.16623076796531677 0.07941076159477234 -0.015027389861643314 0.3383021652698517 -0.24576327204704285 0.12333183735609055 0.2229018360376358
these -0.13283105194568634 -0.20377014577388763 0.23228973150253296 -0.054215312004089355 -0.053924866020679474 -0.023749522864818573 0.08893043547868729 0.3454570472240448 -0.11913703382015228 0.37102338671684265 0.05687350407242775 0.17500291764736176 -0.01757182739675045 0.15994486212730408 -0.31432050466537476 0.1434876173734665 -0.10803278535604477 -0.11259857565164566 0.6151324510574341 -0.06705615669488907 0.543749988079071 0.15290457010269165 -0.15205812454223633 -0.2438914179801941 -0.3528166115283966 0.09257518500089645 0.18568363785743713 -0.20046450197696686 -0.0597323402762413 -0.4625493586063385 0.05743962153792381 0.085664764046669 -0.5978748202323914 -0.49037086963653564 0.11111560463905334 -0.20807187259197235 -0.1333567351102829 0.03014550171792507 0.17360305786132812 0.1862463504076004 -0.022620923817157745 -0.015842042863368988 0.11521787196397781 0.3235604465007782 0.14749597012996674 -0.06413815915584564 0.23197777569293976 0.03819058835506439 -0.12477371841669083 -0.11090080440044403 0.023218296468257904 -0.10985754430294037 -0.13462556898593903 -0.24687694013118744 -0.04049026593565941 -0.16023299098014832 -0.2092745453119278 -0.246147021651268 -0.07219608873128891 -0.3652907907962799 0.10098521411418915 -0.0038953139446675777 0.020890790969133377 0.12467688322067261 -0.11595696210861206 0.16611529886722565 0.11861234158277512 -0.05429001897573471 -0.08864735066890717 -0.07353314757347107 -0.17656420171260834 -0.20747442543506622 -0.030490748584270477 -0.28854382038116455 0.24633054435253143 -0.27433788776397705 0.10566568374633789 -0.04951516166329384 0.2856447696685791 -0.1072322279214859 -0.050840433686971664 -0.324389785528183 -0.23671044409275055 0.12048681825399399 0.1146310418844223 -0.1345382183790207 -0.33945196866989136 0.12904001772403717 -0.08257787674665451 -0.26178616285324097 -0.33934181928634644 0.04660572484135628 -0.04106052592396736 0.16534830629825592 0.246334969997406 0.14191599190235138 -0.12351089715957642 -0.07759041339159012 0.09576231986284256 0.16221101582050323
companies -0.06624426692724228 -0.03991582617163658 0.1502135992050171 -0.10772931575775146 -0.17941074073314667 -0.10028733313083649 0.11115943640470505 0.08012571930885315 -0.14188598096370697 0.2668071389198303 -0.12867097556591034 -0.0422428660094738 -0.056295350193977356 -0.006704607047140598 -0.06061527505517006 0.051963020116090775 -0.061017706990242004 0.0016024686628952622 0.21579329669475555 -0.058548685163259506 0.19076408445835114 -0.08503485471010208 -0.013612886890769005 0.014396294951438904 -0.061797045171260834 0.11022751033306122 0.20891104638576508 0.1585484892129898 0.039420802146196365 -0.11332593858242035 -0.1320752501487732 -0.12206465750932693 -0.11637555807828903 -0.11442195624113083 -0.05573050305247307 -0.12517201900482178 0.07921203970909119 -0.010277812369167805 0.13896054029464722 0.13975930213928223 -0.10312270373106003 -0.10819373279809952 0.25204843282699585 0.04216083511710167 0.09674791991710663 -0.0066149248741567135 0.0026989374309778214 0.06398239731788635 0.13721761107444763 0.08331773430109024 0.18844759464263916 -0.1644589602947235 -0.08281347155570984 0.012537354603409767 -0.2210298776626587 -0.009313300251960754 -0.23725183308124542 -0.04310202598571777 0.013686006888747215 -0.05001334846019745 0.023422034457325935 0.023288650438189507 0.16621404886245728 0.14891110360622406 0.08811946958303452 -0.004873613361269236 0.037537459284067154 0.009775200858712196 -0.025982603430747986 0.1588182896375656 -0.12130877375602722 -0.1038866639137268 -0.06511205434799194 -0.10666622966527939 0.14891232550144196 0.039644189178943634 0.02646702341735363 0.030207011848688126 0.2177523523569107 -0.09361069649457932 0.19072860479354858 -0.21592383086681366 -0.0618056021630764 0.00884204637259245 -0.029300060123205185 -0.13320662081241608 0.05267411842942238 0.1599445343017578 3.088839875999838E-4 -0.1758999079465866 -0.27613455057144165 0.05553429201245308 -0.051885202527046204 0.020356319844722748 -0.03729203715920448 0.11332356184720993 0.1004643663764 -0.08455201983451843 0.13798145949840546 0.050276439636945724
music -0.02721286192536354 0.2628631591796875 0.08038093149662018 0.02613752707839012 0.051340799778699875 0.030302876606583595 -0.07554369419813156 -0.05734680965542793 0.044939637184143066 0.08991581946611404 -0.0595087930560112 0.0018643554067239165 0.055879633873701096 0.10659006983041763 -0.02233373001217842 0.21288414299488068 -0.17254026234149933 0.2176608294248581 0.02133406512439251 -0.15609459578990936 -0.3090232014656067 0.01897280104458332 0.18011002242565155 0.15238812565803528 0.23521853983402252 -0.009791241958737373 -0.12585574388504028 0.09120871871709824 -0.2049393206834793 0.11194539070129395 0.3261532783508301 -0.05945823714137077 0.14209599792957306 0.05400416627526283 0.04956403747200966 0.051364608108997345 0.07892291247844696 0.08771336078643799 -0.08833242207765579 -0.05531535670161247 0.21451330184936523 -0.13369277119636536 0.26388195157051086 0.013782087713479996 0.1691986620426178 0.15705707669258118 0.107150137424469 -0.0747683122754097 0.08364101499319077 -0.18068061769008636 -0.12578871846199036 -0.08779532462358475 0.08724022656679153 0.022394690662622452 -0.07754728198051453 -0.061883993446826935 -0.039590828120708466 -0.04592504724860191 0.13827738165855408 0.16079477965831757 -0.1517239809036255 -0.08358179777860641 -0.11142691969871521 0.09184716641902924 -0.11520037055015564 0.013782818801701069 0.1305234283208847 -0.048267483711242676 0.005753624252974987 0.0810728520154953 -0.12336478382349014 0.22172851860523224 -0.04449838399887085 0.2820513844490051 -0.07614190131425858 -0.016347790136933327 -0.010408549569547176 0.01812811754643917 0.11699380725622177 -0.00609940942376852 0.021233249455690384 0.07601512968540192 0.03715896233916283 -0.014875524677336216 -0.031149044632911682 0.27311477065086365 0.08624717593193054 0.10448302328586578 0.09787805378437042 -0.15522286295890808 -0.33494481444358826 0.1743062287569046 0.037456344813108444 -0.0034386066254228354 -0.03663541376590729 -0.1110784038901329 0.011989736929535866 -0.17950719594955444 -0.16080595552921295 -0.17173315584659576
would 0.035456277430057526 0.037691742181777954 -0.1393691450357437 -0.20872727036476135 0.21364092826843262 0.015022195875644684 0.004733655601739883 -0.09061791002750397 0.011182339861989021 -0.02119654417037964 -0.2707127332687378 0.18776273727416992 0.40276020765304565 -0.06476474553346634 0.017090393230319023 -0.16573436558246613 0.3104044497013092 0.14549361169338226 0.04684418439865112 -0.06754805147647858 -0.24952340126037598 -0.07123322784900665 -0.09655178338289261 0.0789867639541626 -0.2608508765697479 -0.47324612736701965 0.08824212104082108 -0.040251899510622025 0.09541895240545273 0.12839050590991974 -0.06302337348461151 0.14433351159095764 -0.02357417717576027 -0.18865154683589935 0.10723656415939331 -0.11535617709159851 0.048162613064050674 0.17360876500606537 -0.09120669215917587 0.0496201366186142 -0.11418106406927109 0.08415133506059647 0.08941329270601273 -0.3358154296875 -0.0625634491443634 -0.054985836148262024 0.06606083363294601 -0.14752888679504395 0.26319751143455505 0.053112853318452835 -0.09066142141819 -0.5729767680168152 0.06983883678913116 -0.1311303675174713 0.012302718125283718 0.04098033159971237 0.13563889265060425 -0.09060347080230713 -0.14260347187519073 -0.14119449257850647 0.060069236904382706 0.016544215381145477 0.07736843079328537 -0.07195758819580078 -0.028072519227862358 -0.02196129783987999 0.021586772054433823 0.3711662292480469 -0.2397008091211319 0.06760679930448532 -0.020118694752454758 -0.2569660246372223 0.13284803926944733 0.04552457854151726 0.02405223250389099 0.6774992346763611 0.17927908897399902 0.1622113436460495 0.03535456582903862 0.197548508644104 -0.12111776322126389 0.1153905838727951 -0.1412552297115326 0.08221614360809326 0.03567513823509216 0.003530713263899088 -0.23909777402877808 0.2105911523103714 -0.13202941417694092 -0.09005916118621826 0.19811242818832397 0.1097496896982193 -0.08259508013725281 0.4264781177043915 -0.030505087226629257 0.07166037708520889 0.1704944223165512 -0.38120797276496887 0.17356674373149872 -0.06251485645771027
because 0.09770273417234421 -0.06355763971805573 -0.030635716393589973 0.015423324890434742 0.07129498571157455 0.0208843182772398 0.026521936058998108 -0.09140118956565857 0.030123373493552208 0.18755726516246796 0.22584398090839386 0.2107594907283783 0.3383447527885437 0.14916731417179108 -0.04992029070854187 0.12043773382902145 0.002613406628370285 0.2716872990131378 0.013407615944743156 0.08293396979570389 0.07261521369218826 0.20876602828502655 0.03839098662137985 -0.08142278343439102 -0.13713359832763672 0.06542565673589706 -0.22595779597759247 0.17169415950775146 -0.1365315318107605 -0.10590101033449173 0.04705294966697693 0.15186063945293427 -0.07976537942886353 -0.18630585074424744 -0.07513126730918884 -0.041221097111701965 0.159124955534935 0.06417778879404068 0.05824393033981323 -0.1881505846977234 -0.001149522140622139 0.06523417681455612 0.15905234217643738 0.09485587477684021 0.08150880038738251 0.10723204165697098 0.1379082351922989 0.03324676677584648 0.0668143555521965 -0.06487539410591125 -0.20692847669124603 -0.12084748595952988 -0.05117104575037956 0.1497517079114914 0.004475344903767109 -0.16874586045742035 -0.02630363591015339 0.1164470911026001 -0.03782673180103302 -0.008190295659005642 0.10087192058563232 -0.19657452404499054 0.04950270429253578 0.14244267344474792 -0.031037744134664536 -0.1953313946723938 0.04962930828332901 0.07235214114189148 -0.0556659996509552 -0.06162144988775253 0.11338862031698227 -0.15583732724189758 0.014676885679364204 -0.0752377137541771 -0.080579973757267 -0.19379860162734985 -0.00657271733507514 0.027615902945399284 -0.0968751385807991 -0.012813637964427471 -0.12285744398832321 0.022596964612603188 0.05993618443608284 0.06466641277074814 -0.15961846709251404 0.04108232632279396 0.2421407848596573 0.012156305834650993 0.02198992297053337 0.09906388819217682 0.1695384979248047 -0.15668296813964844 -0.1607939600944519 0.07544935494661331 -0.048606738448143005 -0.2400958091020584 0.055227406322956085 -0.32018157839775085 -0.0031392581295222044 -0.05333636701107025
state -0.2952575981616974 0.02280867099761963 -0.13314960896968842 0.13650372624397278 -0.04783745855093002 -0.15351031720638275 -0.2639298141002655 -0.0038106897845864296 0.034644126892089844 0.3222815692424774 -0.1344614326953888 -0.007951414212584496 0.09092353284358978 -0.24150292575359344 0.1726798713207245 0.06265471875667572 -0.17247354984283447 0.42849448323249817 0.1909797489643097 -0.3125494122505188 0.03213653340935707 -0.2026767134666443 -0.10115311294794083 -0.047032009810209274 -0.1804589331150055 0.2941924035549164 -0.07125838845968246 0.17952394485473633 -0.08973544090986252 0.05794737488031387 0.1977931410074234 -0.14242254197597504 -0.047760456800460815 -0.008176357485353947 -0.10682801157236099 0.14475169777870178 0.11138509958982468 -0.25419503450393677 0.07116562128067017 -0.28312844038009644 0.04604395851492882 -0.2276301085948944 0.2753591537475586 0.05640634149312973 0.03543216362595558 0.10348263382911682 -0.14038725197315216 -0.04964718967676163 0.225671648979187 -0.033050354570150375 0.057427577674388885 -0.18221637606620789 0.20064108073711395 0.019383076578378677 -0.16461844742298126 0.00395479379221797 0.04662933945655823 -0.03116665966808796 0.10662826150655746 0.0482926107943058 -0.01419652160257101 0.0030078382696956396 -0.05968765541911125 0.06287863105535507 -0.2003183364868164 0.10599850118160248 0.2720423936843872 -0.06470461189746857 -0.01035960204899311 0.3428027331829071 -0.25542280077934265 0.18257489800453186 -0.15790227055549622 0.1536150723695755 0.01489949505776167 -0.23367354273796082 -0.17706233263015747 0.1557989865541458 0.24789251387119293 -0.11022696644067764 0.07119876146316528 -0.1941625326871872 0.08873657137155533 0.002174797235056758 0.10366986691951752 0.08057348430156708 0.10005052387714386 0.1337248980998993 0.037572793662548065 -0.21554020047187805 -0.2415415495634079 -0.09834554046392441 0.12420939654111862 -0.23081424832344055 0.05511447414755821 -5.837288917973638E-4 -0.009298218414187431 0.010262214578688145 0.045879144221544266 0.03693590685725212
you -0.03384352847933769 0.23623137176036835 0.28236445784568787 -0.3746229410171509 0.02865874394774437 -0.18873918056488037 -0.17985984683036804 0.1425740122795105 -0.03398362174630165 0.22862134873867035 0.0483875647187233 0.20618852972984314 -0.07641755044460297 -0.19065752625465393 0.38809794187545776 -0.06101195141673088 0.26378726959228516 -0.2844184935092926 0.08567904680967331 -0.00904533639550209 -0.0960991382598877 0.008059736341238022 -0.15662521123886108 0.23125074803829193 -0.18858425319194794 0.17499414086341858 -0.030943812802433968 0.16570700705051422 0.31518545746803284 0.10711177438497543 -0.3601607382297516 0.18884555995464325 0.1503426879644394 -0.0037104766815900803 0.18892425298690796 -0.04416431859135628 -0.23183566331863403 -0.13438808917999268 0.07854825258255005 0.11947371065616608 0.1233292818069458 0.14565163850784302 0.2720825672149658 0.3320656418800354 0.010320167057216167 -0.009031200781464577 -0.14343775808811188 -0.15156100690364838 0.17577312886714935 -0.0526953786611557 -0.14255285263061523 0.04931231588125229 0.06884272396564484 0.23165717720985413 -0.047115784138441086 0.1312021166086197 0.044992316514253616 0.05972558259963989 0.24952685832977295 -0.074610136449337 0.15459413826465607 0.07982999831438065 -0.2115265429019928 0.11848785728216171 0.12736797332763672 0.11880847066640854 -0.5105897784233093 -0.1238657534122467 -0.14647915959358215 -0.30507975816726685 -0.18142496049404144 -0.1258586049079895 0.11806175112724304 -0.13934005796909332 -0.23189033567905426 0.1426527053117752 0.029979441314935684 -0.19614212214946747 -0.027425892651081085 -0.14408943057060242 0.2907106578350067 -0.21041126549243927 0.03157779946923256 -0.04763859137892723 0.0271481741219759 0.08265278488397598 0.11910810321569443 0.19345785677433014 0.10584262013435364 0.020005661994218826 -0.02702619694173336 0.03929634764790535 -0.12777914106845856 0.3568846881389618 -0.07932824641466141 -0.059261489659547806 -0.15266551077365875 -0.12479963898658752 -0.1319091022014618 0.057765893638134
they -0.13332685828208923 -2.966971806017682E-6 0.037223342806100845 -0.3780370056629181 0.21339327096939087 0.04178725555539131 -0.0771266296505928 0.1101675033569336 0.024770427495241165 0.09519178420305252 -0.11862026900053024 0.21732878684997559 -0.16018906235694885 -0.10186078399419785 0.12596125900745392 -0.11913973093032837 0.07330650091171265 -0.28010597825050354 0.33415353298187256 0.16526930034160614 0.04715758189558983 0.10893867909908295 -0.17874594032764435 0.1676976978778839 -0.04495226964354515 0.01670771650969982 0.18182070553302765 -0.33436280488967896 0.41033151745796204 -0.4121335744857788 -0.19038228690624237 -0.06633119285106659 -0.2701340317726135 0.015670178458094597 0.11209528148174286 5.045452853664756E-4 0.0676339864730835 0.1285838782787323 0.09119559079408646 -0.023729870095849037 0.027407053858041763 -0.03145819157361984 0.2116667628288269 0.20132862031459808 0.03795340284705162 -0.1771339327096939 -0.3541179895401001 -0.2596375644207001 -0.14304044842720032 -0.049997299909591675 -0.14004360139369965 -0.03989965468645096 0.16182713210582733 -0.0964527279138565 -0.013644197024405003 0.24657560884952545 -0.16166743636131287 -0.046302586793899536 0.05023977905511856 -0.06337053328752518 0.14180085062980652 0.05107380822300911 0.2951521575450897 -0.004030423704534769 0.1625509411096573 0.01968989148736 -0.24691274762153625 -0.046747107058763504 -0.037000980228185654 0.04658572003245354 -0.14694209396839142 -0.12683406472206116 -0.11673133820295334 0.02706448920071125 -0.18827804923057556 0.11581707745790482 0.035826437175273895 0.025309329852461815 0.1475604772567749 0.01814350113272667 0.06274852901697159 -0.17294494807720184 0.2193920612335205 0.055161893367767334 -0.012663557194173336 0.09482638537883759 0.01440451666712761 0.02770727500319481 -0.14022508263587952 0.08756806701421738 -0.2782709300518036 0.18535955250263214 -0.14066925644874573 0.4035058617591858 -0.2426701933145523 -0.09095114469528198 -0.05118345841765404 0.027250612154603004 0.03584406152367592 0.2461792230606079
$ -0.02263585291802883 -0.030321771278977394 -0.021285852417349815 0.0027420532424002886 -0.005432685371488333 0.00842125155031681 -0.02262873202562332 0.01674748957157135 -0.005310446489602327 -0.007287670858204365 0.024718593806028366 -0.036564115434885025 0.009742740541696548 -0.0061158896423876286 -6.96664210408926E-6 -0.012250501662492752 -0.029910409823060036 0.014240329153835773 -0.013742567971348763 -0.0035431948490440845 0.013639605604112148 4.93546249344945E-4 0.04607442393898964 0.0022587422281503677 0.003548633772879839 -0.002013075863942504 0.028969673439860344 -0.005309130530804396 0.026246782392263412 -0.02790139615535736 -0.01526778656989336 0.00765527319163084 -0.03458884358406067 0.009222574532032013 -0.005269053857773542 -0.03560522198677063 0.009731423109769821 -0.025775238871574402 0.026065222918987274 0.008647756651043892 -0.005896387156099081 -0.0272644255310297 0.022891182452440262 -0.02175326645374298 0.0426667220890522 0.03155802935361862 -0.010189344175159931 0.01972493901848793 0.011971944011747837 0.007268953137099743 0.004802837036550045 -0.011693962849676609 -0.027968373149633408 0.02723041921854019 -0.019486460834741592 0.007994924671947956 -0.02504986710846424 -0.015376425348222256 -0.009608825668692589 0.013256609439849854 0.0015691390726715326 0.0013278522528707981 -0.0053870524279773235 -0.024776620790362358 0.02351566031575203 0.01890697330236435 5.447657313197851E-4 0.019581954926252365 -0.0022468818351626396 0.0035994325298815966 -0.016689730808138847 -0.03563613444566727 -0.005136248655617237 -0.024392906576395035 0.04184289276599884 0.006664244458079338 0.009363720193505287 -0.022662809118628502 0.021387368440628052 -0.015224626287817955 0.01171578373759985 0.0031491145491600037 -0.017550477758049965 0.017334964126348495 0.004059117287397385 -0.013694226741790771 -0.006050603464245796 -0.0030967993661761284 0.008818589150905609 -0.0037702980916947126 -0.003971989266574383 0.021604493260383606 -0.001341887516900897 0.009574294090270996 -0.004640030208975077 1.2029241770505905E-4 0.029640035703778267 -0.03991340473294258 0.02016637474298477 0.009174466133117676
going -0.3233969509601593 -0.18519872426986694 -0.3218555450439453 -0.20821335911750793 -0.185313880443573 0.13689741492271423 0.37398871779441833 -0.1800602227449417 0.14787980914115906 0.13160841166973114 -0.12192431092262268 -0.3249768614768982 0.27250635623931885 0.2951987385749817 -0.17363189160823822 -0.2784810960292816 0.20364101231098175 0.11509817093610764 0.010444944724440575 0.04568233713507652 0.0738765299320221 0.2353634387254715 -0.1687537133693695 -0.07130936533212662 -0.019012218341231346 0.1098116785287857 -0.1565682291984558 0.09742721915245056 0.181620791554451 -0.055090297013521194 -0.07246333360671997 0.26365926861763 -0.0713413879275322 -0.058942198753356934 -0.004803149960935116 0.1488325297832489 -0.25064408779144287 0.14881478250026703 0.04601893201470375 -0.08888377994298935 0.1236257553100586 -0.41634514927864075 -0.04152554273605347 0.12516653537750244 1.3321208825800568E-4 0.11761603504419327 -0.0820745900273323 -0.04460981860756874 -0.35843464732170105 -0.010128878057003021 0.05120990052819252 0.014250099658966064 0.15646561980247498 0.15834902226924896 0.1672753244638443 0.18513719737529755 -0.24965345859527588 -0.14705826342105865 -0.34607023000717163 0.11896146088838577 0.4458211362361908 -0.03924667835235596 0.043325524777173996 0.37377485632896423 -0.11359646916389465 0.12328491359949112 -0.7377570867538452 0.09915697574615479 0.21659447252750397 -0.2230527400970459 -0.45127230882644653 -0.08008109778165817 0.16523829102516174 -0.1682116687297821 0.1690579205751419 0.2821645140647888 -0.0827162116765976 -0.09707128256559372 -0.49422383308410645 0.17843203246593475 -0.02267489582300186 0.039172809571027756 0.03932265192270279 0.06852857768535614 0.1265532225370407 0.04836272820830345 -0.07397713512182236 0.13048595190048218 0.5297800898551941 0.08558984845876694 0.3645102381706238 0.2322591096162796 0.15150435268878937 0.06834626197814941 -0.07255084067583084 -0.18282550573349 0.23038963973522186 -0.36252671480178833 -0.10616371780633926 -0.11050784587860107
old -0.0942465215921402 -0.19863396883010864 0.21058395504951477 0.3043878674507141 -0.2910703122615814 -0.10293048620223999 0.13549822568893433 0.12108784914016724 -0.08932171016931534 0.06188938394188881 -0.09431175142526627 -0.1768740713596344 -0.1136515885591507 0.3278332054615021 -0.3522234559059143 -0.10559352487325668 -0.04224339872598648 0.23765704035758972 0.2569321095943451 -0.056321967393159866 -0.04128698259592056 -0.1109984740614891 0.05092865601181984 -0.1156947910785675 0.21673038601875305 -0.006317697465419769 0.022775033488869667 0.14292535185813904 -0.2744319438934326 -0.16102716326713562 0.003264972474426031 -0.0801316574215889 -0.009174603037536144 -0.4105907678604126 0.001336628571152687 0.12551119923591614 0.184287428855896 -0.09232044219970703 0.004593178164213896 -0.0923599898815155 0.201839417219162 -0.2123740166425705 0.034739818423986435 0.37695372104644775 -0.12364286929368973 -0.09916635602712631 -0.05413440987467766 -0.24245968461036682 0.2741374969482422 -0.21452336013317108 -0.009086225181818008 0.006405628751963377 -0.04560590162873268 -0.1538432091474533 0.3248966932296753 -0.36173731088638306 -0.2700435221195221 -0.2217773199081421 -0.13794879615306854 -0.1343427449464798 -0.1570265144109726 -0.185426726937294 -0.06814074516296387 0.07266280800104141 -0.3119637966156006 0.17036792635917664 -0.04148834943771362 0.04915786162018776 -0.2688663899898529 0.0771511122584343 -0.1357826143503189 0.23403877019882202 0.09881914407014847 -0.03412903472781181 0.004199271555989981 0.1559763103723526 -0.11262255162000656 0.2964537441730499 0.022799938917160034 -0.2437659353017807 -0.12744131684303284 -0.3898701071739197 -0.14717501401901245 -0.11908142268657684 0.0871361568570137 -0.2322205901145935 -0.29966476559638977 0.20383383333683014 0.30731767416000366 -0.45914313197135925 -0.2269650101661682 -0.023746054619550705 -0.31876733899116516 -0.15734778344631195 -0.014930322766304016 0.031480927020311356 0.18273396790027618 -0.05384981632232666 0.11559469997882843 0.051381539553403854
night 0.035196952521800995 0.04897022619843483 -0.22342601418495178 -0.10778102278709412 0.09099984169006348 -0.027511274442076683 -0.3627886176109314 -0.0509805753827095 -0.004916074685752392 -0.2729266881942749 0.29464828968048096 -0.2638186514377594 0.36411798000335693 0.22145366668701172 0.14824460446834564 -0.36986273527145386 -0.20766045153141022 0.25027716159820557 -0.08128184825181961 0.28195369243621826 -0.24073070287704468 -0.0862601026892662 0.7184181809425354 -0.1710803210735321 0.5536778569221497 -0.18516507744789124 -0.09317440539598465 -0.22533079981803894 -0.012858889065682888 0.05258147418498993 0.13865584135055542 -0.1818314641714096 0.27213814854621887 -0.17021185159683228 -0.16771239042282104 -0.03505779802799225 0.0025442244950681925 -0.21601000428199768 0.2783072292804718 -0.11381731182336807 0.09275967627763748 -0.5574371814727783 -0.054679252207279205 -0.08107572048902512 0.10493463277816772 -0.061009280383586884 -0.24019953608512878 -0.12953169643878937 -0.2387467622756958 0.07359939813613892 0.17891453206539154 -0.0033946915064007044 0.21922533214092255 0.09015602618455887 0.24797779321670532 -0.07579781860113144 -0.2410285919904709 -0.15928111970424652 0.14328421652317047 -0.3209427297115326 -0.09797528386116028 0.0394543893635273 -0.20930127799510956 0.19301816821098328 -0.08948051929473877 -0.008922817185521126 0.0362437441945076 0.07170484960079193 -0.24170240759849548 -0.08044096827507019 0.17635680735111237 0.2197507917881012 0.060197122395038605 0.3137800395488739 0.17130230367183685 -0.2093711793422699 0.1645520031452179 0.11494698375463486 0.07363206148147583 0.22084662318229675 0.020463764667510986 -0.167305126786232 -0.05036330968141556 -0.011018465273082256 0.1472359448671341 -0.030575746670365334 -0.20017167925834656 0.05795278772711754 -0.3331398665904999 -0.09553719311952591 -0.11130151897668839 -0.05717099830508232 0.11214579641819 0.18703356385231018 -0.06360390782356262 0.2673493027687073 0.11809311807155609 0.09761057049036026 -0.1655825525522232 -0.0021364446729421616
want -0.22363527119159698 -0.08538666367530823 -0.017131291329860687 -0.021965280175209045 0.33888116478919983 -0.06220996007323265 0.08495139330625534 -0.1606767326593399 0.2767820656299591 -0.22446805238723755 -0.040634848177433014 -0.3374403417110443 0.5900307893753052 -0.09400061517953873 0.21626180410385132 0.08146262913942337 0.0455530621111393 0.10597014427185059 -0.10836275666952133 -0.06047913059592247 -0.03576040640473366 0.007800011429935694 -0.40513288974761963 0.01322160568088293 -0.12680092453956604 -0.015689212828874588 -0.11856478452682495 0.027878176420927048 0.28867045044898987 -0.061000026762485504 -0.24619588255882263 0.27026036381721497 -0.04851195216178894 0.06297735869884491 0.01878095604479313 -0.06624028831720352 -0.24822407960891724 -0.2718333601951599 -0.3603404760360718 0.29717138409614563 0.12016929686069489 0.2794618010520935 0.1077556237578392 0.07353940606117249 0.23943835496902466 0.2633514702320099 0.19490186870098114 -0.1826189011335373 -0.1996118128299713 -0.019700320437550545 -0.0859685018658638 -0.21518589556217194 -0.1465357095003128 0.2259957194328308 -0.34149715304374695 0.007237756159156561 -0.007269029505550861 -0.10993429273366928 -0.24400022625923157 0.15199755132198334 0.3316149413585663 0.08292066305875778 -0.06480885297060013 0.12761400640010834 0.033940140157938004 0.22593943774700165 0.04705066233873367 0.12134763598442078 0.15977191925048828 -0.146751269698143 -0.029885204508900642 -0.34915393590927124 -0.28013113141059875 0.06587567180395126 0.1783631443977356 0.33790385723114014 0.24879029393196106 -0.15111595392227173 0.2232249677181244 -0.14380058646202087 -0.0988689437508583 0.34860432147979736 -0.008059573359787464 0.26907360553741455 0.16593807935714722 -0.10997328907251358 -0.12239578366279602 0.07322884351015091 0.10345351696014404 0.19780437648296356 0.08242032676935196 0.011080429889261723 0.1549922525882721 0.3195253610610962 0.03187292441725731 0.41341274976730347 0.34923112392425537 -0.1734788417816162 -0.18119312822818756 -0.14523328840732574
them 0.25647762417793274 -0.13168618083000183 -0.23927190899848938 -0.2553635835647583 0.09856127202510834 0.05393866077065468 -0.05654973164200783 0.3589130938053131 -0.22908321022987366 0.01737486571073532 0.0921376496553421 0.3293657600879669 0.05455490201711655 0.5067801475524902 0.04180704802274704 0.1061704233288765 -0.34305909276008606 0.035669244825839996 -0.09369535744190216 -0.1346447616815567 -0.12046350538730621 0.19294816255569458 0.13716694712638855 0.1536717712879181 -0.1579001098871231 -0.11149530857801437 -0.00579835707321763 0.1322043091058731 0.379632830619812 -0.23581676185131073 -0.05849131569266319 -0.06503601372241974 -0.23414859175682068 0.08158963173627853 -0.03745034337043762 -0.24684950709342957 -0.08090123534202576 -0.12531854212284088 0.09338785707950592 -0.011191098019480705 -0.07391688227653503 -0.248124897480011 0.27023231983184814 0.14499910175800323 0.31160905957221985 0.09281472116708755 0.25000646710395813 0.21962618827819824 -0.0895204022526741 -0.12726213037967682 -0.09241040050983429 -0.10318724811077118 0.025530729442834854 0.27404579520225525 0.09552580118179321 0.12946882843971252 0.0023126781452447176 -0.06495968252420425 0.029602743685245514 -0.15168055891990662 -0.0038038978818804026 -0.13281147181987762 0.010406962595880032 0.14136934280395508 0.0991840735077858 0.09467222541570663 0.05717907473444939 0.032821618020534515 -0.09125611931085587 -0.03699783980846405 -0.19388847053050995 -0.37108948826789856 -0.0811457559466362 -0.16655121743679047 0.10962020605802536 -0.13016362488269806 0.2769372761249542 0.0036368295550346375 0.25689083337783813 -0.07489527761936188 0.16983339190483093 -0.21159514784812927 -0.12415552139282227 0.275246798992157 0.21325716376304626 -0.20442362129688263 0.0683746263384819 0.2403099536895752 -0.011806730180978775 -0.15678410232067108 -0.09304562956094742 0.02714487537741661 0.0017432712484151125 0.18760289251804352 0.05348839983344078 -0.003417875152081251 -0.08494963496923447 -0.23951780796051025 -0.09747453033924103 0.018845979124307632
then 0.005362802185118198 0.2901270091533661 -0.10118505358695984 -0.12687082588672638 0.4397646188735962 -0.04787026718258858 0.2160789668560028 -0.1998131424188614 -0.05807910114526749 -0.03434077650308609 0.12959349155426025 -0.22062146663665771 0.4117797017097473 -0.20014669001102448 0.22431501746177673 0.10324423760175705 -0.23031805455684662 0.15754014253616333 -0.0031841492746025324 -0.18873314559459686 0.07459130138158798 -0.13011513650417328 -0.04094040393829346 -0.07566726952791214 0.007768016774207354 0.0829550176858902 -0.0053182328119874 -0.1364210844039917 -0.017335426062345505 -0.08885332196950912 -0.05629748851060867 -0.15087343752384186 -0.2498057782649994 0.027245165780186653 0.09380395710468292 -0.1338629424571991 0.13464853167533875 -0.1968054175376892 0.21679207682609558 -0.04241309314966202 0.06735320389270782 -0.3604060113430023 -0.048187654465436935 -0.0258171446621418 0.1004583016037941 0.07799465954303741 0.31716421246528625 -0.04781332239508629 -0.026432055979967117 0.04414482042193413 0.04881362244486809 0.12747283279895782 0.01060524769127369 -0.13094082474708557 0.11317013949155807 0.13962607085704803 -0.14594034850597382 0.08974085003137589 0.0015794436912983656 0.08482465893030167 -0.08548638224601746 -0.19468432664871216 0.2305525839328766 0.04242778569459915 -0.2148093581199646 0.09047405421733856 -0.2363215535879135 -0.0641774907708168 -0.18879374861717224 -0.22857610881328583 0.016019759699702263 -0.016272427514195442 0.2089945673942566 -0.052568163722753525 0.02425968647003174 -0.06206322833895683 -0.018185321241617203 0.026279281824827194 -0.0790565088391304 0.15238694846630096 0.0349692702293396 -0.10618863999843597 0.016684385016560555 0.12346646934747696 -0.034978851675987244 -0.013680694624781609 -0.12150641530752182 -0.0033588081132620573 -0.16562509536743164 -0.16834983229637146 0.0811556950211525 0.16187706589698792 0.11862543970346451 -0.11291904002428055 -0.07671336084604263 0.09523593634366989 0.14996688067913055 0.2810669541358948 0.12495297938585281 -0.18001842498779297
court -0.20521269738674164 0.03245462849736214 -0.025523921474814415 -0.005124571267515421 0.06939798593521118 0.10077068954706192 -0.2734529376029968 -0.1542813926935196 0.16258029639720917 0.03008330799639225 0.20509304106235504 -0.12272097170352936 0.24292773008346558 -0.12957480549812317 0.1418047994375229 -0.21215111017227173 -0.032051749527454376 0.3094818890094757 -0.05519590899348259 -0.06132224574685097 -0.07733990997076035 0.18796633183956146 0.12616662681102753 0.034411292523145676 0.16704705357551575 0.2325986623764038 -0.10606831312179565 0.020597761496901512 0.01999698579311371 0.10794226825237274 0.18006539344787598 0.0403311587870121 0.06070023775100708 -0.07352510839700699 0.03485524281859398 0.24897664785385132 -0.053186964243650436 -0.2725563049316406 0.1572311967611313 -0.12052673101425171 0.03127460181713104 -0.20463517308235168 -0.07102613151073456 -0.13372014462947845 0.0934801697731018 0.12059302628040314 0.0014578504487872124 -0.15270937979221344 0.010918207466602325 -0.0848170816898346 -0.014780252240598202 0.11971334367990494 0.1516476720571518 -0.04312262684106827 0.14116798341274261 0.1670573353767395 -0.08758188039064407 -0.1880761981010437 0.07298925518989563 0.05200077220797539 -0.017558537423610687 0.024756239727139473 -0.22192662954330444 -0.01501882541924715 -0.17293120920658112 -0.06644842773675919 -0.230011448264122 0.1383828967809677 -0.04275045543909073 0.18255971372127533 -0.2611972391605377 0.03572975844144821 -0.08892139792442322 0.08259832113981247 -0.0028834757395088673 -0.10766617208719254 0.040937334299087524 0.041260167956352234 0.10144464671611786 -0.0932498350739479 0.08125569671392441 0.06460238248109818 0.2169763594865799 0.12248063832521439 0.0328180193901062 0.18310244381427765 0.007607689127326012 0.13120275735855103 0.15814898908138275 -0.014524244703352451 0.056217584758996964 0.09353645145893097 -0.08984549343585968 -0.025881003588438034 -0.12221938371658325 0.02645213156938553 0.1939256489276886 -0.1137879490852356 -0.05771942064166069 0.19235746562480927
an -0.3827207386493683 -0.06289279460906982 -0.06641833484172821 -0.1682087779045105 -0.23211216926574707 0.003250367008149624 -0.10827749967575073 -0.02499595284461975 0.17826499044895172 -0.011891732923686504 0.02746228687465191 -0.07944049686193466 0.17814995348453522 0.12160466611385345 0.04325864091515541 -0.1064031720161438 -0.017432812601327896 0.07301216572523117 0.025836840271949768 0.20651811361312866 -0.14117848873138428 -0.03660842776298523 0.26469317078590393 -0.008527499623596668 0.17182786762714386 0.21933966875076294 0.021411187946796417 0.21942278742790222 0.2708941102027893 0.1551646590232849 -0.017552247270941734 -0.058243874460458755 0.25636109709739685 -0.11323440819978714 -0.2764561176300049 0.13038915395736694 -0.017706533893942833 -0.14488260447978973 0.09811419993638992 -0.24935555458068848 0.13984838128089905 -0.2720387578010559 0.10110771656036377 0.026653746142983437 -0.10903958231210709 -0.06423705071210861 -0.023000705987215042 0.017950864508748055 -0.17282752692699432 0.029169710353016853 -0.060071706771850586 -0.07282587885856628 -0.13639721274375916 0.14561671018600464 0.002751673571765423 0.05461440235376358 0.01620541512966156 -0.1438731849193573 0.03487756848335266 -0.045817334204912186 -0.01737046055495739 0.024206779897212982 -0.019833145663142204 0.2740897238254547 -0.20166637003421783 0.17929479479789734 -0.3028576672077179 -0.25440216064453125 -0.18682460486888885 0.1332782655954361 0.017546581104397774 -0.009860767982900143 0.09130875021219254 0.16342298686504364 -0.04827200248837471 -0.005892305634915829 0.05620511621236801 0.14067380130290985 0.17789478600025177 -0.30184465646743774 0.07751821726560593 0.04968511685729027 0.15471576154232025 -0.13839897513389587 0.09612738341093063 -0.4009115695953369 -0.15046627819538116 -0.06773240119218826 0.09169857949018478 -0.0842827633023262 0.22040608525276184 0.14111414551734924 -0.08631820976734161 -0.17648573219776154 0.18390706181526184 0.21054935455322266 0.27378812432289124 0.13169732689857483 0.11094293743371964 0.07752500474452972
- 0.008895466104149818 0.05994071811437607 -0.174422487616539 0.04948059096932411 0.14169304072856903 4.61102114059031E-4 -0.028651084750890732 -0.050031088292598724 -0.12713196873664856 -0.007104297634214163 -0.06119220331311226 0.0853581428527832 0.01789347641170025 0.13972948491573334 0.12162438780069351 -0.0191508661955595 0.027390681207180023 0.0634993463754654 -0.0033161777537316084 -0.12779377400875092 -0.002249825280159712 -0.03791294991970062 0.06609252840280533 -0.16101406514644623 0.07818039506673813 0.04510662332177162 0.04957164451479912 0.029818210750818253 -0.09644462913274765 0.10253499448299408 0.02517702989280224 -0.014101482927799225 0.03157392889261246 -0.07538304477930069 -0.08499746769666672 -0.010160606354475021 -0.11724106967449188 0.016646936535835266 0.08786038309335709 -0.14045171439647675 0.06692256778478622 -0.10765231400728226 0.0851091593503952 0.031848736107349396 -0.01803264021873474 0.010136296041309834 -0.020041227340698242 0.04666440933942795 0.01639326475560665 0.05629418045282364 0.12343708425760269 0.006241142749786377 0.06371496617794037 -0.08231401443481445 -0.007531655021011829 -0.004662764258682728 -0.0628589540719986 -0.09837671369314194 0.04252546280622482 -0.13017608225345612 -0.041510339826345444 -0.07796430587768555 0.011691495776176453 0.10398589074611664 -0.055078666657209396 0.047114498913288116 -0.1747136116027832 -0.13386180996894836 -0.044644709676504135 0.10124189406633377 -0.030090326443314552 -0.01491650938987732 0.022875552996993065 0.09131304919719696 -0.05277077853679657 -0.10243934392929077 0.07125400006771088 0.0899522602558136 0.04395279288291931 -0.04465989023447037 -0.0018139483872801065 -0.053473100066185 0.028382683172822 -0.022849153727293015 -0.04607073962688446 -0.02509835548698902 0.014985119923949242 0.0627468079328537 -0.028140144422650337 -0.08444041758775711 -0.130349799990654 0.021278435364365578 0.05928941071033478 -0.20380590856075287 0.0024999864399433136 0.09548859298229218 0.014924312941730022 0.15464188158512115 -0.028513172641396523 -0.03358253464102745
former -0.03491472825407982 0.007373479660600424 0.04276929423213005 0.02788316085934639 -0.08371148258447647 -0.0038924275431782007 -0.022105909883975983 -0.0038582836277782917 -0.033505506813526154 0.048208050429821014 0.007589093875139952 -0.016142969951033592 -0.003496711142361164 0.04285041615366936 0.0357828326523304 0.010886428877711296 -0.03767086938023567 0.09434431791305542 0.027934690937399864 -0.0892753154039383 -0.004750506952404976 -0.03393348306417465 0.03255939483642578 -0.02561591938138008 0.06745904684066772 0.059523072093725204 0.03255033120512962 0.015563489869236946 -0.0626184493303299 0.04421358183026314 0.03736226260662079 -0.05131963640451431 0.06497899442911148 -0.02744000218808651 -0.05628238245844841 0.13094688951969147 -0.027567902579903603 -0.020085224881768227 0.03763066604733467 -0.05024820938706398 3.853779344353825E-4 -0.06852637231349945 0.026198720559477806 0.001096801133826375 -0.016153965145349503 -7.762048626318574E-4 0.01583678275346756 0.03135114535689354 0.019307417795062065 -0.007964108139276505 -0.012922379188239574 -0.034630849957466125 -0.013122301548719406 -0.07851853966712952 -0.01851768232882023 -0.05160554498434067 0.023027755320072174 -0.050596777349710464 -0.0065683829598128796 -0.025345180183649063 -0.03928222507238388 0.02826637402176857 -0.045534100383520126 0.009363854303956032 -0.010319915600121021 0.015237406827509403 0.043291881680488586 -0.03450033813714981 0.009497055783867836 0.09649555385112762 -0.053621914237737656 0.07002850621938705 0.002619879087433219 0.04406563192605972 0.020485026761889458 -0.045339714735746384 -0.03195451945066452 0.03920980542898178 0.057709258049726486 -0.014467783272266388 0.03435010090470314 -0.015215557999908924 -0.008253974840044975 -0.01834002323448658 -0.027644120156764984 0.011191073805093765 -2.419932425254956E-4 0.03954615071415901 0.02714446559548378 -0.07100185006856918 -0.06737600266933441 -0.004101259633898735 0.05058268457651138 -0.0605582594871521 0.03013533353805542 0.012423225678503513 -0.009976403787732124 0.026819638907909393 -0.0017313204007223248 0.0032986090518534184
each 0.2082040011882782 -0.2307034134864807 0.019446171820163727 -0.2903319001197815 -0.4596715271472931 -0.0903894379734993 -0.09701899439096451 0.1372464895248413 -0.4391024708747864 -0.1411357969045639 0.2305222749710083 0.012844854965806007 0.08145513385534286 0.09761223196983337 0.2007978856563568 -0.05520861968398094 -0.5565671920776367 -0.17696160078048706 -0.04075102135539055 0.1427837759256363 0.010207029990851879 0.1265704333782196 0.37010517716407776 0.1409303992986679 0.09685491770505905 0.13737718760967255 0.09191280603408813 0.3770022988319397 0.31347551941871643 -0.4178949296474457 -0.14972679316997528 -0.20542165637016296 -0.25496482849121094 -0.19526974856853485 -0.2690463662147522 -0.08404408395290375 -0.21252582967281342 0.032055798918008804 0.2069692462682724 -0.054689593613147736 -0.027095535770058632 -0.21131859719753265 0.03903976455330849 -0.29768505692481995 0.32331278920173645 0.12424084544181824 0.1573147475719452 0.32723769545555115 0.0864371806383133 -0.09797967225313187 0.04986213147640228 -0.37286850810050964 -0.09291242808103561 -0.15663710236549377 -0.087736114859581 0.03684483841061592 -0.5039250254631042 0.032036539167165756 -0.010161071084439754 -0.051808807998895645 -0.030135467648506165 -0.10310927778482437 0.20736950635910034 0.1999785602092743 0.06157313659787178 -0.08619512617588043 0.08122020959854126 0.27281102538108826 0.06035025417804718 0.011003520339727402 -0.13834039866924286 -0.3264347314834595 -0.16161462664604187 0.28653374314308167 0.09555669873952866 -0.05677196383476257 0.07133243978023529 -0.08254821598529816 0.35593485832214355 -0.11620126664638519 0.13950106501579285 0.17239663004875183 -0.011695020832121372 0.40952378511428833 0.17046663165092468 -0.06168879196047783 -0.11797669529914856 0.5759747624397278 0.1743415743112564 0.044050950556993484 -0.06663931906223297 0.11389120668172836 -0.03502776846289635 0.10645809024572372 -0.02165846712887287 0.5078596472740173 0.35561659932136536 -0.12938551604747772 0.10913250595331192 0.3476765751838684
as -0.07246024906635284 -0.10991627722978592 -0.10070724785327911 -0.023940246552228928 -0.11133299767971039 -0.1487395316362381 0.2940288782119751 0.22287224233150482 -0.1778821051120758 0.10055074840784073 0.01929355598986149 -0.30741915106773376 0.026920564472675323 0.23385657370090485 0.14354386925697327 0.05993735417723656 -0.008159629069268703 0.24134434759616852 0.1792084276676178 -0.06796228885650635 0.1281144917011261 -0.20701667666435242 0.46646833419799805 -0.4167526066303253 0.09255374222993851 -0.1245359405875206 0.0868530422449112 -0.041505370289087296 -0.09987425804138184 -0.01699548214673996 -0.08776778727769852 0.08199404180049896 -0.26123934984207153 0.052237123250961304 -0.29433298110961914 0.3187927007675171 -0.2241688072681427 0.0914718434214592 0.1264229118824005 -0.24960587918758392 -0.22711493074893951 0.4347184896469116 0.26724061369895935 0.061603281646966934 -0.18526028096675873 -0.17297418415546417 -0.2638515532016754 -0.10183356702327728 0.1170772910118103 -0.1818554699420929 -0.13727253675460815 0.4900578260421753 -0.1562688648700714 0.40404775738716125 0.19266746938228607 -0.28719809651374817 -0.285048246383667 -0.09851166605949402 0.23287171125411987 -0.2394738644361496 0.07031901925802231 -0.16490179300308228 0.09236262738704681 -0.014937425032258034 0.14509263634681702 0.17516541481018066 -0.05048584192991257 -0.02437818981707096 -0.3875564634799957 0.017724821344017982 -0.08870421350002289 -0.2207481414079666 -0.010409721173346043 0.07751865684986115 -0.3162634074687958 0.032680314034223557 0.03501597419381142 -5.267212400212884E-4 0.09075315296649933 -0.20503531396389008 0.34814274311065674 0.5804500579833984 0.051309291273355484 -0.30295175313949585 -0.1748422533273697 -0.1108613982796669 0.22361794114112854 -0.021966569125652313 -0.1722690463066101 0.32668590545654297 -0.2697593569755554 -0.44280344247817993 0.13795821368694305 0.2905133366584778 0.035389263182878494 -0.09869512915611267 0.0045644682832062244 -0.3050793707370758 0.07357747852802277 -0.3764488101005554
at 0.2336045801639557 0.11947453767061234 -0.3061722218990326 -0.44857147336006165 -0.10098470747470856 -0.10421872138977051 0.12132949382066727 0.1455802619457245 -0.1901363581418991 0.15021374821662903 0.12385809421539307 -0.041780684143304825 0.42296352982521057 0.07119819521903992 0.06060992553830147 -0.060202762484550476 -0.15964870154857635 -0.15831364691257477 -0.09027283638715744 0.047058358788490295 -0.2938089966773987 0.10005704313516617 0.4116309583187103 -0.15151429176330566 0.03698181360960007 -0.06396113336086273 -0.3451349437236786 -0.04866776615381241 -0.07816911488771439 -0.1294475793838501 0.17492036521434784 -0.16004429757595062 -0.36663177609443665 -0.14059603214263916 -0.20562493801116943 0.34661948680877686 0.20864063501358032 -0.2903958857059479 0.1640147715806961 -0.7593004107475281 -0.02229647897183895 -0.003389935940504074 -0.40628018975257874 0.26250672340393066 -0.15988333523273468 0.14828859269618988 0.18101513385772705 0.09509161114692688 -0.3530024588108063 -0.0032918353099375963 0.011649980209767818 -0.18603681027889252 -0.019679810851812363 -0.3453108072280884 0.3317531943321228 -0.19377824664115906 0.2513572871685028 0.04528305307030678 -0.09564754366874695 -0.28446608781814575 -0.18582062423229218 -0.023168733343482018 0.07869429141283035 -0.13230526447296143 -0.1714598685503006 -0.021713480353355408 0.0010248131584376097 -0.09740789979696274 0.4376917779445648 0.053661637008190155 0.02016368694603443 -0.01325425785034895 -0.00581675348803401 -0.05109820514917374 0.25201842188835144 -0.10252890735864639 0.14931216835975647 0.008172509260475636 -0.07366693764925003 -0.22611190378665924 -0.34970933198928833 -0.025738688185811043 0.24563544988632202 0.011365012265741825 -0.08472481369972229 0.12806840240955353 -0.28798097372055054 0.3360064923763275 -0.1321694254875183 0.018729470670223236 -0.22965314984321594 -0.12506382167339325 0.04422152414917946 0.17212025821208954 -0.06345325708389282 0.2772226631641388 0.14534500241279602 -0.04636833816766739 -0.1482795923948288 0.39954885840415955
left 0.018077680841088295 -0.024777032434940338 -0.15191295742988586 -0.17787647247314453 0.007735888008028269 0.02872588112950325 0.004261441063135862 -0.031835127621889114 -0.16429853439331055 0.059278786182403564 0.32281050086021423 -0.35962164402008057 0.18995554745197296 0.086820587515831 -0.24188511073589325 0.23475584387779236 0.06662357598543167 0.2757377326488495 0.11006565392017365 -0.17597536742687225 0.011942441575229168 -0.08791407942771912 -0.02571687288582325 0.0449046790599823 -0.06004812940955162 -0.07793807983398438 0.08717694878578186 0.12781329452991486 -0.4039413630962372 0.2483210265636444 0.2807706594467163 0.025509262457489967 -0.10345704853534698 -0.1661379188299179 0.11968650668859482 -0.1270970106124878 -0.09381793439388275 -0.006013705860823393 0.1893695890903473 -0.1335296481847763 -0.3261566460132599 -0.23603332042694092 0.08958578109741211 0.019464954733848572 0.27440518140792847 -0.12992694973945618 0.17890480160713196 0.03895409777760506 0.08636436611413956 -0.024257037788629532 -0.08157965540885925 0.005670878570526838 -0.08389033377170563 -0.13408614695072174 -0.024493185803294182 -0.030221300199627876 0.07002036273479462 -0.037872523069381714 -0.1424589306116104 -0.2600196301937103 -0.1196872889995575 -0.23975494503974915 -0.007064654491841793 0.06303677707910538 -0.0024251071736216545 -0.03639326989650726 -0.1918095350265503 0.017468368634581566 -0.23536406457424164 0.009779240004718304 0.18025273084640503 -0.03370780125260353 0.21412940323352814 0.02696373127400875 -0.08668822050094604 -0.02940235286951065 0.013785609044134617 0.035288240760564804 -0.17100898921489716 -0.048402879387140274 0.16872064769268036 -0.2962776720523834 -0.09622940421104431 -0.3177875578403473 -0.09375270456075668 -0.06226155534386635 0.04037594422698021 0.006192628759890795 0.04383065551519394 -0.2586992383003235 -0.15826140344142914 0.3968715965747833 -0.3138272762298584 -0.20539510250091553 -0.12548798322677612 0.2220683991909027 0.08347384631633759 0.0854094848036766 0.11976569145917892 0.14742639660835266
much 0.119206003844738 0.22139091789722443 0.3839126527309418 0.15973791480064392 -0.08337648212909698 -0.07752709835767746 0.027467109262943268 0.025175658985972404 0.3212231993675232 -0.14566664397716522 0.11263713240623474 0.2526843547821045 -0.16464538872241974 0.3370340168476105 -0.33922427892684937 0.08153882622718811 0.017265772446990013 0.08277132362127304 -0.3153371810913086 -0.028251582756638527 -0.21272365748882294 0.18045975267887115 0.2270561158657074 0.3560342788696289 0.21690145134925842 -0.2595548629760742 0.03274955227971077 0.16878648102283478 0.20114918053150177 -0.3682522773742676 0.003531127469614148 0.15282943844795227 0.3621845245361328 -0.05212565138936043 0.10958580672740936 -0.6867309808731079 0.39596498012542725 0.1289452314376831 -0.31764569878578186 -0.25865408778190613 0.057665593922138214 0.4347190260887146 0.4494817852973938 0.11877017468214035 0.37638598680496216 0.0905926451086998 0.12165948003530502 0.0323275662958622 0.3354201912879944 -0.06767206639051437 -0.2351103127002716 -0.14736710488796234 0.02897145226597786 0.12250132113695145 0.18439994752407074 0.17649869620800018 -0.0793658196926117 0.16832226514816284 -0.1489255130290985 0.23806992173194885 -0.264387845993042 -0.21775060892105103 0.1856553703546524 0.36080068349838257 0.09668665379285812 0.01803458295762539 -0.15827256441116333 0.12887130677700043 0.06168217211961746 -0.02254878170788288 0.4164349138736725 -0.10346199572086334 -0.11862015724182129 -0.032445356249809265 -0.23997431993484497 0.1688384711742401 -0.020533127710223198 0.6084926128387451 -0.21305978298187256 -0.26470085978507996 -0.0748913362622261 -0.23087337613105774 0.15383395552635193 -0.16471026837825775 0.4779433310031891 -0.2025933563709259 0.06286738067865372 0.15792489051818848 0.11422852426767349 0.0996612086892128 -0.28967028856277466 0.20669494569301605 -0.44287002086639404 -0.32854852080345154 -0.056931763887405396 -0.24983227252960205 0.044710274785757065 -0.24217796325683594 0.013328338041901588 0.3394935727119446
be -0.12104678899049759 -0.4015616774559021 -0.012666413560509682 -0.1793099194765091 -0.3093499541282654 -0.040293797850608826 -0.25200414657592773 0.3374444544315338 0.30273008346557617 0.06948158144950867 0.35658007860183716 0.32151487469673157 0.19249959290027618 -0.005443267989903688 -0.04462873190641403 0.2979311943054199 0.1087789386510849 0.1340545415878296 0.13274402916431427 0.5203239917755127 0.05980749428272247 -0.07674957066774368 -0.07565562427043915 -0.09503670781850815 -0.0909748300909996 0.4590684473514557 -0.14117422699928284 0.29182347655296326 0.09430496394634247 0.25691279768943787 -0.018273865804076195 0.1386377066373825 -0.0892115980386734 -0.061554305255413055 -0.18444934487342834 -0.16176460683345795 -0.02119888737797737 0.18822309374809265 0.1436326801776886 -0.23217414319515228 -0.34749406576156616 0.292856365442276 -0.10918637365102768 -0.08977213501930237 -0.02164148911833763 -0.09111010283231735 -0.30414798855781555 0.103351891040802 0.19750672578811646 -0.05706963688135147 0.06489846110343933 0.15730369091033936 0.1113239973783493 0.1973835974931717 0.21727505326271057 0.15724904835224152 0.39271342754364014 0.016917482018470764 -0.16066719591617584 0.276775598526001 -0.2693912088871002 0.0034332238137722015 0.26458969712257385 -0.17015905678272247 -0.02213844284415245 0.10145165026187897 0.003600881202146411 -0.12152410298585892 -0.25342026352882385 0.254800409078598 0.02292223647236824 0.13679350912570953 0.0043770852498710155 -0.02765767276287079 -0.06933632493019104 0.039358045905828476 -0.07908422499895096 0.05241497978568077 0.16497235000133514 -0.13563163578510284 0.28451719880104065 -0.19721055030822754 0.1419166475534439 0.031516484916210175 -0.20870400965213776 -0.0573740191757679 0.4233929216861725 -0.13499349355697632 -0.20674875378608704 0.03146814554929733 -0.007838045246899128 -0.01648910529911518 0.1764708012342453 0.22184881567955017 -0.0147527065128088 -0.22517694532871246 0.3126661479473114 0.22257418930530548 -0.08940975368022919 -0.03130215406417847
another -0.11081273853778839 0.10254812985658646 -0.04675400257110596 0.020614182576537132 -0.09714092314243317 0.16666708886623383 -0.21190567314624786 -0.21073321998119354 -0.23627685010433197 -0.09834951162338257 -0.04737652838230133 0.0814962089061737 0.2154042273759842 0.16836810111999512 0.21561285853385925 -0.4552970230579376 -0.1545630544424057 0.09586123377084732 -0.1475091129541397 0.23182731866836548 -0.14267389476299286 -0.16299843788146973 -0.06844932585954666 -0.17708975076675415 0.21941392123699188 0.09625475853681564 0.17208421230316162 0.024589912965893745 0.1593988537788391 0.08814571797847748 -0.1557459682226181 0.013664685189723969 0.020511019974946976 0.359113872051239 -0.17437398433685303 -0.20172624289989471 -0.23227570950984955 -0.15236376225948334 0.3244251608848572 0.04932759702205658 0.2002032995223999 -0.22079774737358093 0.009059806354343891 -0.078700490295887 0.2600571811199188 -0.19788187742233276 -0.06123560294508934 0.33315810561180115 6.594350561499596E-4 0.13307519257068634 -0.32840195298194885 -0.20122118294239044 -0.4370670020580292 0.2797274887561798 0.22766035795211792 0.18851788341999054 0.1046830490231514 -0.2730262577533722 -0.1877320408821106 -0.013420458883047104 -0.18311704695224762 0.02424345538020134 -0.24502494931221008 0.005030774511396885 -0.07138510793447495 0.268860787153244 0.036076419055461884 -0.0127139613032341 -0.30360013246536255 0.321411669254303 0.04672073945403099 0.1302637755870819 0.2613755762577057 0.21501390635967255 -0.19084888696670532 0.005414083134382963 0.07804174721240997 0.024614641442894936 -0.13684073090553284 -0.22882801294326782 0.14936326444149017 -0.19843558967113495 -0.18923306465148926 -0.18675771355628967 -0.3643900454044342 -0.2976320683956146 -0.13281692564487457 -0.10747017711400986 -0.03248605504631996 0.004709899891167879 0.2971385717391968 0.18122036755084991 0.07993888109922409 -0.10123620182275772 0.04782331362366676 -0.12933287024497986 -0.13099922239780426 0.25404998660087585 0.0754002258181572 0.11363012343645096
two -0.030534394085407257 -0.11073744297027588 -0.17545238137245178 -0.09713941067457199 -0.12732268869876862 0.08223994821310043 0.0049975719302892685 0.01290098112076521 -0.1472543627023697 0.028189213946461678 0.28880685567855835 0.08715969324111938 0.1505885124206543 0.2884957790374756 0.02098369225859642 -0.4323351979255676 -0.09096216410398483 0.14065292477607727 -0.13204869627952576 -0.21828286349773407 0.22563493251800537 -0.2805282175540924 0.28458935022354126 -0.3133479356765747 0.14678795635700226 -0.023997969925403595 0.43866583704948425 -0.2769324779510498 -0.5114045739173889 0.10321002453565598 -0.2019491344690323 -0.17614224553108215 -0.32798367738723755 -0.16185961663722992 -0.06923583149909973 -0.25711631774902344 -0.5228909254074097 0.058702629059553146 0.577460765838623 -0.12285497039556503 -0.2385769635438919 -0.3185432255268097 0.1765839159488678 0.05985935777425766 0.5554711818695068 -0.06602857261896133 0.14786605536937714 0.06573192775249481 0.46132519841194153 0.15549863874912262 0.44623249769210815 0.001369599369354546 -0.4033129811286926 -0.39196452498435974 -0.026657983660697937 0.017511645331978798 -0.03215741738677025 -0.5800697803497314 -0.14245890080928802 -0.3595520555973053 -0.18277545273303986 0.057718075811862946 0.01293057482689619 0.13869866728782654 -0.08098723739385605 -0.02743770182132721 -0.17373327910900116 0.14233994483947754 -0.3743913471698761 -0.005180602427572012 -0.2800852358341217 -0.23659011721611023 0.07049666345119476 -0.11455607414245605 0.2118891030550003 0.08083914965391159 0.04047458991408348 -0.11681243777275085 0.04638979956507683 -0.09479472041130066 0.32036736607551575 -0.4280850887298584 0.053924959152936935 -0.026394443586468697 -0.2687445878982544 -0.09755866974592209 0.04868804290890694 -0.04829220846295357 0.0607755221426487 -0.20995554327964783 -0.2271837294101715 0.4007069170475006 -0.20787133276462555 -0.07604993134737015 0.010204356163740158 0.3452650010585785 -0.041019950062036514 0.29312580823898315 0.14391598105430603 0.2582424581050873
long -0.07965900748968124 -0.07162246853113174 0.0536196269094944 0.4779159426689148 -0.14356547594070435 0.013987152837216854 0.19424912333488464 -0.12473894655704498 0.3146178424358368 -0.5225126147270203 2.515335218049586E-4 0.09826823323965073 -0.20439167320728302 0.13038277626037598 -0.17590470612049103 -0.5556843876838684 0.16130737960338593 -0.17506614327430725 -0.15274100005626678 0.5165197849273682 -0.2079850733280182 0.09716440737247467 0.07626016438007355 -0.32644739747047424 0.5651041865348816 -0.24340012669563293 0.10013551265001297 -0.07498007267713547 0.28387463092803955 0.1694996953010559 -0.2819090187549591 -0.29480496048927307 0.4479422867298126 0.08644039928913116 0.07041753828525543 -0.2172214835882187 0.023517023772001266 -0.010497870855033398 -0.4516231417655945 -0.4412635266780853 0.012226145714521408 -0.39427682757377625 -0.12717528641223907 -0.20729972422122955 -0.3096526563167572 -0.04726529121398926 -0.0744747593998909 0.012274997308850288 0.22293643653392792 0.3500977158546448 0.4869503080844879 0.31609392166137695 -0.052057478576898575 -0.01819426193833351 0.6722346544265747 -0.1406087875366211 0.23350301384925842 -0.4096364974975586 -0.5736664533615112 -0.06104832515120506 0.061844199895858765 -0.0013519367203116417 0.30698639154434204 0.384761780500412 0.286674439907074 0.04703619331121445 -0.2693837583065033 0.062153421342372894 -0.21144476532936096 0.031520262360572815 0.4853649437427521 0.16193772852420807 0.13733446598052979 -0.31252068281173706 -0.0348297543823719 0.08566940575838089 -0.16773389279842377 0.487449586391449 -0.19703437387943268 -0.4269470274448395 0.2815369963645935 -0.3622748553752899 0.4172106683254242 0.23701292276382446 -0.04978654906153679 -0.22127965092658997 0.14156047999858856 -0.0019643015693873167 -0.13110332190990448 -0.18032419681549072 0.27996912598609924 -0.44672709703445435 -0.05405120924115181 -0.14926542341709137 -0.03530588373541832 -0.03927331790328026 -0.027144072577357292 -0.19876629114151 0.3588147759437561 0.5058550834655762
into 0.11488523334264755 0.09735138714313507 -0.12502580881118774 0.03156251087784767 0.17044566571712494 0.006385129410773516 -0.1400335431098938 0.05163012817502022 2.7784029953181744E-5 -0.022939063608646393 -0.03279360383749008 -0.0937284380197525 0.18917112052440643 -0.002430899068713188 0.023152431473135948 -0.18506035208702087 -0.044517118483781815 0.11508819460868835 -0.21926747262477875 0.07584074884653091 -0.08735281229019165 -0.06038295105099678 0.11098220199346542 -0.005805638153105974 0.13225558400154114 0.20499169826507568 -0.014423241838812828 -0.022171879187226295 0.2054387480020523 0.021580446511507034 -0.3039703667163849 0.0807868242263794 -0.06164596602320671 0.2321660965681076 -0.1075131818652153 -0.1088956668972969 0.15528149902820587 -0.29022416472435 -0.021921422332525253 0.08302494883537292 0.22632721066474915 -0.1957390457391739 -0.011801041662693024 0.04147382080554962 -0.10032288730144501 0.046859946101903915 -0.0344279520213604 0.09067364037036896 -0.2736007273197174 -0.016886727884411812 0.18646472692489624 -0.0337858647108078 -0.005292138084769249 0.24146504700183868 0.02551608346402645 0.020858295261859894 -0.16987816989421844 -0.165608748793602 0.019016560167074203 -0.18950535356998444 0.1285887509584427 0.07415053248405457 -9.864351013675332E-4 -0.12940524518489838 -0.006862223148345947 0.10418180376291275 0.009223926812410355 -0.09865134954452515 -0.03819455951452255 0.00523056834936142 -0.12174379080533981 0.13602879643440247 -0.05184290185570717 0.027699816972017288 0.1892634481191635 -0.09056273847818375 0.24706438183784485 -0.273722380399704 0.17607131600379944 -0.10668708384037018 0.1376420110464096 -0.17344260215759277 -1.7201900482177734E-4 0.0560726560652256 -0.14226993918418884 -0.17296500504016876 -0.10352887958288193 -0.21500718593597412 -0.15891626477241516 -0.017563432455062866 0.2055857926607132 -0.15583834052085876 -0.2335149049758911 0.20883941650390625 -0.09486385434865952 -0.0027922941371798515 0.210998997092247 -0.18669751286506653 0.0304254163056612 0.00792387593537569
how -0.29474225640296936 0.07084455341100693 0.06331562250852585 0.05576248839497566 0.23601587116718292 -0.1718999594449997 -0.04259800910949707 -0.02354765124619007 0.024706881493330002 -0.00524814473465085 -0.084660105407238 -0.11626184731721878 0.03638206049799919 -0.22573301196098328 0.28557291626930237 0.24713531136512756 -0.3334449827671051 -0.031708892434835434 -0.2353902906179428 -0.3926025629043579 0.1434057205915451 -0.13993029296398163 0.34649643301963806 -0.2758045792579651 0.09112818539142609 -0.07933489978313446 -0.09140737354755402 0.1812962144613266 -0.1746271401643753 -0.35793015360832214 -0.592166543006897 0.12708637118339539 0.08236705511808395 0.5722127556800842 -0.277767539024353 -0.19554810225963593 -0.23568496108055115 -0.13050666451454163 0.1038588136434555 -0.12914827466011047 -0.036137837916612625 0.30169451236724854 0.20541222393512726 -0.0018130246317014098 0.015682023018598557 -0.060548145323991776 -0.15192294120788574 0.06183981895446777 -0.19310754537582397 0.10548654943704605 -0.1033128872513771 0.16295823454856873 -0.03978723660111427 0.413160115480423 0.12573938071727753 0.006394593510776758 -0.3496532142162323 0.506015419960022 0.22912192344665527 -0.2064671814441681 0.27789849042892456 -0.5199650526046753 0.2924416661262512 0.23354730010032654 0.026888959109783173 0.08154567331075668 -0.10393428802490234 0.04907132312655449 0.04762689396739006 -0.10265592485666275 0.051425278186798096 -0.22195477783679962 -0.031888362020254135 -0.007833520881831646 -0.07248817384243011 -0.09635225683450699 -0.01768595166504383 -0.1899651139974594 -0.04039058834314346 -0.012732456438243389 -0.0028192303143441677 0.3431054949760437 0.17810653150081635 -0.11239679157733917 0.2863480746746063 -0.14536114037036896 0.25440508127212524 -0.009434841573238373 -0.18230107426643372 0.08773262053728104 0.26888197660446167 -0.09291316568851471 0.17344684898853302 0.16790321469306946 0.1332932412624359 -0.014258532784879208 0.13153089582920074 -0.12741044163703918 0.07466825097799301 -0.41710853576660156
see 0.024812186136841774 -0.16027860343456268 0.007705301512032747 0.0760023295879364 0.42902660369873047 0.23159846663475037 -0.13225188851356506 0.002524981740862131 -0.01628507487475872 -0.058487679809331894 0.15604661405086517 0.020732853561639786 0.3246769905090332 -0.18525958061218262 -0.08842571079730988 -0.0030709390994161367 0.0683426558971405 0.005868491251021624 0.028322061523795128 0.20672228932380676 0.052285630255937576 0.06837672740221024 0.06352423131465912 -0.04581550881266594 -0.17461450397968292 0.08600189536809921 -0.22905923426151276 0.09822340309619904 0.08399301767349243 0.17660033702850342 0.11751820892095566 0.11050223559141159 -0.3116134703159332 0.0562441386282444 -0.10494757443666458 -0.23095184564590454 0.20095853507518768 -0.006327229086309671 -0.24660781025886536 0.015586523339152336 0.012267772108316422 0.4778304994106293 0.11795694380998611 0.05033532902598381 0.05004572868347168 -0.019881149753928185 0.006565784104168415 -0.19422100484371185 -0.26145246624946594 0.10813452303409576 0.02606446109712124 -0.11756452918052673 -0.1326954960823059 0.37233635783195496 -0.12675251066684723 0.061339620500802994 -0.2646573483943939 -0.26519834995269775 -0.17440028488636017 0.26682817935943604 0.06944559514522552 -0.05015290156006813 -0.10463856160640717 -0.229752317070961 -0.13655345141887665 0.09236606955528259 0.17341125011444092 0.011632303707301617 -0.043661780655384064 0.11781565845012665 0.20497573912143707 0.012978048995137215 -0.09039580076932907 0.11720232665538788 -0.02914087101817131 0.11883042007684708 0.2833833694458008 -0.09447690844535828 0.09995739907026291 0.029100582003593445 -0.020770035684108734 -0.18660257756710052 -0.07279302924871445 0.11777044832706451 0.12444920092821121 -0.20968401432037354 0.006923914887011051 -0.43226316571235657 -0.3853210210800171 0.056096747517585754 -0.0043969000689685345 0.07089192420244217 -0.150024875998497 0.08558603376150131 0.09185229986906052 -0.1382221281528473 0.18859665095806122 0.14700771868228912 0.0699695572257042 0.052710190415382385
same 0.28830447793006897 0.2288559228181839 0.2734350264072418 0.08762982487678528 0.25811323523521423 0.1965666264295578 -0.22936616837978363 -0.2174762487411499 0.1385868638753891 -0.14424803853034973 0.3710072338581085 -0.003721963381394744 -0.1915644109249115 -0.1504860818386078 0.12970569729804993 0.07337730377912521 0.14379195868968964 0.3969373404979706 0.3417356312274933 -0.17223794758319855 -0.2616087794303894 -0.19014471769332886 0.03412697836756706 -0.23325690627098083 0.447744756937027 0.6501564979553223 0.028535116463899612 0.21759599447250366 -0.2826661467552185 0.03351821377873421 0.0773744285106659 0.15597036480903625 -0.1679597795009613 -0.38079461455345154 -0.3032709062099457 0.46441128849983215 -0.14135624468326569 -0.1977531909942627 -0.11945842951536179 -0.16015440225601196 -0.21140359342098236 0.0035631670616567135 -0.04438206925988197 0.07631481438875198 0.07895004004240036 0.010377494618296623 -0.2825459837913513 0.1618291735649109 0.022579899057745934 -0.14225788414478302 -0.17839853465557098 -0.10063489526510239 -0.18472547829151154 -0.11944469809532166 0.3205973207950592 -0.33374759554862976 -0.10318218916654587 -0.41799283027648926 -0.13101381063461304 -0.19095388054847717 -0.03331349045038223 -0.07722979784011841 -0.059956055134534836 -0.372167706489563 -0.07480727881193161 -0.17509813606739044 -0.04767565801739693 -0.058477580547332764 0.059138547629117966 0.5420780181884766 -0.2923658788204193 0.26176026463508606 0.1288432776927948 -0.2320619523525238 -0.008339814841747284 -0.20660500228405 0.16130995750427246 0.2704198658466339 0.008125427179038525 -0.44808822870254517 -0.23426641523838043 -0.01271157618612051 0.1948642134666443 -0.14164800941944122 0.040937554091215134 -0.042697131633758545 -0.011754089035093784 0.1625531017780304 0.020599989220499992 -0.028092723339796066 -0.14625190198421478 0.3641865849494934 0.06495729833841324 -0.10004386305809021 0.05487519130110741 0.001424451475031674 -2.6108595193363726E-4 -0.09381463378667831 0.16250386834144592 0.40995755791664124
found 0.2338295578956604 -0.21163290739059448 -0.1823769211769104 -0.021092848852276802 0.11951391398906708 -0.1069570854306221 0.019729644060134888 -0.07603011280298233 0.13155128061771393 -0.16106931865215302 0.34144535660743713 -0.08069024980068207 0.47336137294769287 -0.12685823440551758 -0.1521283984184265 -0.05904030799865723 0.17768321931362152 0.2704358994960785 -0.09032347053289413 0.02188611589372158 -0.07173559069633484 -0.11685876548290253 0.1459915190935135 0.05361068621277809 -0.11926577985286713 -0.22317351400852203 -0.030008187517523766 0.19708891212940216 -0.18032099306583405 0.13647323846817017 0.24129773676395416 -0.06791157275438309 0.08573348075151443 -6.729571614414454E-4 0.14353269338607788 -0.1447148323059082 0.040632277727127075 0.19502462446689606 0.08099240809679031 -0.08664897829294205 -0.23667694628238678 -0.15657538175582886 0.04183894395828247 -0.24899233877658844 0.07233274728059769 -0.01907017081975937 0.10153601318597794 0.2417757213115692 -0.036328382790088654 0.05346295237541199 -0.08554073423147202 -0.13255229592323303 -0.04651443287730217 -0.04664791747927666 0.07795485109090805 -0.03747059404850006 0.03177255019545555 -0.14053811132907867 -0.13992281258106232 -0.3323328495025635 0.007329671643674374 0.12594565749168396 -0.1751338094472885 -0.022082526236772537 0.19805429875850677 0.13917236030101776 -0.2270241230726242 0.06836047023534775 -0.03493127599358559 0.058476775884628296 0.1847115010023117 0.14759337902069092 0.28100061416625977 0.09604897350072861 -0.16536234319210052 -0.05166097730398178 -0.12228023260831833 0.036778394132852554 -0.21001116931438446 0.09321169555187225 0.1773313730955124 0.07067862898111343 -0.1511061042547226 -0.11163458228111267 -0.19751834869384766 -0.1341935396194458 0.017404166981577873 -0.04329383745789528 -0.11785828322172165 -0.2517063319683075 -3.087385557591915E-4 0.13448569178581238 -0.12689077854156494 -0.18052726984024048 0.019422657787799835 0.13046665489673615 0.240560382604599 0.019806483760476112 0.14259029924869537 0.2930278480052948
are -0.3154180645942688 -0.42561545968055725 0.09189612418413162 0.1815163791179657 -0.43397435545921326 -0.0747697725892067 0.07521171867847443 0.2986587584018707 -0.21998193860054016 -0.16792412102222443 0.4648512005805969 -0.43311992287635803 -0.02903013490140438 0.07442358136177063 0.27255991101264954 0.1739296317100525 0.26809507608413696 0.34538745880126953 0.37984350323677063 -0.18872638046741486 0.0990666002035141 0.027641741558909416 -0.17932264506816864 -0.05697428062558174 -0.01143577229231596 -0.21846312284469604 -0.28503820300102234 0.39068934321403503 0.04520964249968529 -0.3198169469833374 0.05003901943564415 0.03562219813466072 -0.39625856280326843 -0.00427058432251215 0.06252409517765045 -0.14080241322517395 -0.19097213447093964 0.13431566953659058 -0.09648792445659637 0.5456209182739258 -0.09862782806158066 -0.08527764678001404 -0.07665188610553741 -0.09590717405080795 0.32252785563468933 0.05383188650012016 0.15590272843837738 -0.2654709219932556 0.29551729559898376 -0.0334923081099987 -0.1132352352142334 0.18040798604488373 -0.10171671211719513 0.14271017909049988 0.3979893922805786 0.0248304083943367 -0.3105293810367584 0.23512502014636993 0.28419286012649536 0.5735557675361633 -0.22124379873275757 0.2284277230501175 0.09530229866504669 0.009855259209871292 -0.24136149883270264 -0.10374898463487625 0.17606857419013977 0.12110506743192673 -0.14242668449878693 -0.08751089870929718 -0.018589245155453682 0.0014152673538774252 -0.12224351614713669 -0.034791793674230576 0.17197935283184052 0.17011190950870514 -0.1566666066646576 -0.22782790660858154 0.015043542720377445 -0.02909683622419834 -0.04048854112625122 -0.19994932413101196 -0.08844569325447083 0.642345666885376 0.3471124470233917 -0.24758821725845337 -0.30179229378700256 0.4115164577960968 -0.20417621731758118 0.248384028673172 -0.3011665642261505 0.31473734974861145 0.013912190683186054 0.37984296679496765 0.0019389574881643057 0.16832157969474792 -0.08289086818695068 -0.244349405169487 -0.01427400205284357 0.029274772852659225
does 0.2754734456539154 0.22019660472869873 0.2018732726573944 -0.14395728707313538 -0.11721835285425186 -0.1111452654004097 0.2409539669752121 0.3249001204967499 -0.03993120789527893 0.09701690077781677 -0.3079937994480133 0.30695486068725586 0.13010482490062714 -0.24682265520095825 0.14130742847919464 0.180763840675354 0.12230652570724487 0.023092368617653847 0.29138079285621643 -0.09399237483739853 -0.14796113967895508 -0.035593029111623764 -0.4118988811969757 0.29662850499153137 -0.06364873051643372 -0.2502293586730957 -0.06596814841032028 -0.2342354953289032 -0.020999087020754814 -0.05327454209327698 0.038860220462083817 0.042895812541246414 0.0522625669836998 0.028906159102916718 0.13911503553390503 -0.010299572721123695 -0.1165187656879425 0.23811645805835724 -0.05748171731829643 -0.07468969374895096 0.3292771875858307 -0.07713934034109116 0.2566154897212982 -0.17854422330856323 -0.5764328837394714 -0.20516885817050934 -0.014849468134343624 -0.2725552022457123 -0.35356661677360535 -0.11059631407260895 -0.02727295272052288 -0.40747472643852234 -0.16242274641990662 -0.35489481687545776 0.1640363484621048 0.20444011688232422 0.27214479446411133 0.020454807206988335 0.12119434028863907 -0.24214226007461548 -0.020375290885567665 -0.1804293543100357 0.13430318236351013 0.5348364114761353 -0.41151362657546997 0.5811136364936829 -0.2253878265619278 -0.02799886465072632 -0.10187092423439026 -0.07885961979627609 -0.331354558467865 0.07874901592731476 -0.22052955627441406 0.24964487552642822 -0.3022870123386383 0.5059404969215393 -0.04989645257592201 -0.1553504765033722 0.2799737751483917 -0.138357013463974 0.3792645037174225 0.15079908072948456 0.05241866782307625 0.015514192171394825 0.22017508745193481 -0.12209322303533554 -0.45789021253585815 -0.253714382648468 -0.3721625804901123 -0.09433675557374954 0.42564263939857483 -0.22285394370555878 -0.49533164501190186 0.05893271043896675 0.20379768311977386 0.01385250873863697 0.17119915783405304 -0.14697901904582977 -0.1815820187330246 0.40048420429229736
by -0.03737040236592293 0.057319555431604385 -0.11329705268144608 -0.02289498969912529 -0.01616397313773632 0.2360466569662094 -0.13647587597370148 -0.0036114249378442764 -0.2470708042383194 -0.18564742803573608 0.11154477298259735 -0.15442632138729095 -0.0076498654671013355 -0.030701542273163795 0.0277397520840168 -0.21653537452220917 0.0767253115773201 0.13816605508327484 -0.24588114023208618 -0.020999200642108917 0.1290355771780014 -0.0017492746701464057 0.14594995975494385 -0.23189018666744232 0.1575957089662552 0.11521628499031067 0.07092217355966568 -0.002049397211521864 0.0353720560669899 0.09615214169025421 0.02090487629175186 0.05355171114206314 -0.19174477458000183 0.22492195665836334 -0.04309086501598358 0.14229345321655273 -0.19083626568317413 -0.1557927131652832 0.2730359435081482 0.017656104639172554 -0.035002194344997406 -0.08811327069997787 -0.05093527212738991 0.11410748958587646 0.1107572391629219 -0.02987927570939064 0.005293599329888821 0.04764028266072273 -0.0161731094121933 0.04204066842794418 0.22187714278697968 0.07889574766159058 -0.13779471814632416 0.05978783220052719 0.1303364336490631 0.08612420409917831 0.05871724709868431 -0.2239091545343399 -0.1433020979166031 -0.2018994837999344 -0.0663534626364708 0.032806217670440674 -0.08103909343481064 -0.15825070440769196 -0.09058838337659836 0.08812343329191208 -0.05714591592550278 -0.07401271909475327 -0.1831156611442566 0.11205039173364639 0.1387282758951187 0.06158993020653725 0.22293277084827423 0.06506340950727463 0.095049187541008 -0.06655948609113693 0.06918712705373764 -0.14105185866355896 0.006125862710177898 -0.10763747245073318 0.18151389062404633 -0.21033096313476562 -0.06337641179561615 -0.058512527495622635 -0.1293393075466156 -0.1713632494211197 -0.0638546273112297 -0.24303652346134186 -0.15089641511440277 0.006032836157828569 0.18112856149673462 0.12345041334629059 -0.06923681497573853 0.1896207630634308 -0.044009190052747726 0.050299014896154404 -0.039483580738306046 -0.06291903555393219 0.024986708536744118 0.1441347301006317
national -0.08162610977888107 0.04224708303809166 0.09918919950723648 0.07381360977888107 -0.0487515814602375 0.10026641190052032 -0.01995307393372059 -0.05903112515807152 0.03550734370946884 0.03995906934142113 0.07563064247369766 -0.08576077222824097 0.009662237949669361 0.05276742950081825 0.06879204511642456 0.004841737449169159 -0.06885017454624176 0.1490868330001831 0.03313125669956207 -0.020756270736455917 -0.10724402964115143 0.040178775787353516 0.11658116430044174 -0.05860603228211403 0.19045907258987427 0.0864102840423584 0.012013926170766354 0.015401766635477543 -0.018904555588960648 0.04326360300183296 0.06153583154082298 -0.06967085599899292 0.10168926417827606 -0.055202968418598175 -0.03735426813364029 0.16661286354064941 0.020256828516721725 -0.047948207706213 0.0014270959654822946 -0.06275341659784317 0.02021286077797413 -0.21961963176727295 0.024775151163339615 -0.03734933212399483 -0.09969870001077652 0.025559445843100548 -0.010564012452960014 0.030568698421120644 0.05907931178808212 -0.029956337064504623 -0.05210724472999573 0.04901985824108124 0.038418374955654144 -0.06298649311065674 0.04756331071257591 -0.001081006252206862 0.03884400799870491 -0.09588047862052917 0.010777881368994713 0.02933775819838047 -0.061675600707530975 0.04182342067360878 0.03334696218371391 0.0368780680000782 -0.013590402901172638 0.023580463603138924 0.025827202945947647 0.0016753857489675283 -0.01974399946630001 0.08369426429271698 -0.059161458164453506 0.1362784504890442 -0.0658005103468895 0.04794728383421898 -0.01480687502771616 -0.0864836797118187 -0.06036631390452385 0.007524987682700157 0.052565064281225204 -0.0596337616443634 0.09938205033540726 0.043165918439626694 0.03851093724370003 0.051292065531015396 -0.09433208405971527 0.02037576213479042 0.03659746050834656 0.07751525938510895 0.059520915150642395 0.013601580634713173 -0.056835755705833435 -0.04012930393218994 0.07558697462081909 -0.13217298686504364 -0.04844888672232628 -0.028901059180498123 0.037203654646873474 -0.048341911286115646 -0.042143892496824265 0.09545352309942245
where -0.4535524845123291 -0.052974142134189606 0.07821652293205261 0.34391167759895325 0.2009134441614151 -1.233602815773338E-4 -0.31064945459365845 -0.2447853535413742 0.14820197224617004 0.05949443206191063 0.272350937128067 0.5081579685211182 -0.0724061131477356 -0.1426272988319397 0.06027432158589363 -0.3852979838848114 -0.08483783900737762 0.1402590423822403 0.10596003383398056 0.15938031673431396 0.07573240995407104 0.12772423028945923 0.023895228281617165 -0.35244661569595337 0.03747297078371048 0.20905455946922302 -0.2708430886268616 -0.3653678894042969 0.18304474651813507 -0.08664347231388092 -0.08845768123865128 0.22308067977428436 -0.010937312617897987 0.2623365521430969 0.13360685110092163 0.11998498439788818 0.19761396944522858 -0.3088272213935852 0.1547669619321823 -0.12382231652736664 0.21247655153274536 -0.10045599192380905 0.16954238712787628 0.10238522291183472 0.14157024025917053 0.045070674270391464 0.23652641475200653 -0.12962250411510468 0.16700012981891632 0.13048255443572998 0.05972616374492645 0.11751340329647064 0.10798519104719162 -0.28044095635414124 0.14934085309505463 0.029765408486127853 -0.365747332572937 -0.1141948252916336 0.2552187442779541 -0.16648033261299133 0.00573953939601779 -0.22553494572639465 0.30296409130096436 -0.19377584755420685 -0.5185666680335999 -0.31673872470855713 -0.07325886934995651 -0.018663186579942703 -0.15554793179035187 -0.008706692606210709 -0.18349914252758026 -0.1876896619796753 0.20009690523147583 -0.20733560621738434 0.2126418650150299 -0.40953928232192993 -0.29332825541496277 -0.3517414331436157 0.031378764659166336 -0.04084502533078194 -0.24444079399108887 0.35728228092193604 0.20200791954994202 0.203263521194458 0.001103962422348559 -0.33782556653022766 -0.14590175449848175 0.013709782622754574 -0.054464228451251984 0.07935301959514618 0.5496070384979248 -0.1675781011581421 0.14368277788162231 0.08712846040725708 0.025179732590913773 0.019113775342702866 0.04751855880022049 -0.11266840994358063 0.5410743951797485 -0.15382738411426544
after 0.04294596239924431 0.2376299351453781 -0.05940214544534683 0.014520009979605675 0.16224093735218048 -0.026783622801303864 -0.25607219338417053 0.007692339830100536 -0.2269139289855957 0.14431841671466827 0.140772745013237 -0.17761674523353577 0.14522750675678253 0.21830858290195465 -0.02218095026910305 -0.1868641972541809 -0.039958033710718155 0.056256577372550964 -0.11725477874279022 0.12287324666976929 0.15141235291957855 -0.03416377678513527 0.05404253676533699 -0.23375774919986725 0.0035275244154036045 0.10594359040260315 -0.10727593302726746 -0.012132439762353897 -0.3261692225933075 0.05785373970866203 -0.06703130900859833 0.12417903542518616 -0.01271482277661562 0.05798553675413132 -0.05946643650531769 0.02482898347079754 -0.1379137635231018 -0.20578907430171967 0.027377473190426826 -0.19122512638568878 0.1382637768983841 -0.20937307178974152 -0.10510507971048355 0.13437940180301666 -0.01947684958577156 0.0012330084573477507 0.44099268317222595 0.131083145737648 -0.22652211785316467 0.1256612092256546 0.2277359962463379 -0.26402321457862854 0.15201278030872345 -0.15856751799583435 0.09066396951675415 -0.04812968149781227 -0.10601339489221573 -0.05044595152139664 0.08717992901802063 -0.13270282745361328 -0.0292471032589674 -0.07875262945890427 0.14277948439121246 -0.04368117079138756 -0.4040563404560089 0.0740370899438858 0.2315797060728073 -0.2619391679763794 0.17752674221992493 0.1164892390370369 0.10868886858224869 0.11177603900432587 0.04018041118979454 0.3449913263320923 0.3685768246650696 -0.27968630194664 0.020168865099549294 -0.4028962254524231 -0.09791433066129684 -0.06878218799829483 0.01268068142235279 -0.2458783984184265 0.2917141020298004 0.03663652762770653 -0.11938952654600143 0.04269733652472496 -0.1354576200246811 0.04732513800263405 -0.29335957765579224 0.0033389118034392595 -0.10757703334093094 0.16372092068195343 0.10306057333946228 0.032992735505104065 -0.06896401196718216 0.3174591064453125 -0.0627298429608345 -0.04588150233030319 0.09685873985290527 0.24868576228618622
so -0.015394529327750206 0.016844449564814568 -0.23006005585193634 0.04703262075781822 0.19132813811302185 -0.28935351967811584 0.07008899003267288 -0.05687602236866951 -0.2757638394832611 0.08328196406364441 -0.15269891917705536 -0.2608877420425415 -0.08793400228023529 -0.011329922825098038 0.12671934068202972 0.023084547370672226 0.1807376593351364 0.01938542164862156 0.255705863237381 -0.1711903065443039 -0.00989213865250349 0.038718052208423615 0.25831422209739685 0.011163732968270779 -0.030361473560333252 0.12478087842464447 0.09382673352956772 -0.011875933036208153 -0.11663943529129028 0.1831401139497757 0.16356657445430756 -0.12022082507610321 -0.20628905296325684 0.19262464344501495 0.10713589936494827 -0.22722803056240082 0.005337848793715239 0.09839579463005066 0.12131903320550919 -0.21991804242134094 -0.1428728848695755 0.049099501222372055 0.15059694647789001 -0.09515096992254257 0.2854090631008148 -0.01906561106443405 0.2449001520872116 -0.11319083720445633 -0.1385061889886856 -0.024757299572229385 0.12096583843231201 0.08639784902334213 -0.11905331164598465 0.2391664981842041 -0.3452639579772949 -0.06817394495010376 -0.21340519189834595 -0.004145345184952021 0.12840737402439117 0.12938432395458221 -0.013905019499361515 -0.29793494939804077 0.1734926402568817 0.3418757915496826 -0.13390721380710602 0.0476648211479187 -0.3137105703353882 -0.10553853958845139 -0.07898949086666107 -0.0319344699382782 0.0074905469082295895 -0.215499609708786 0.17538580298423767 -0.08673511445522308 -0.011788594536483288 0.15116459131240845 -0.199913889169693 0.06811201572418213 0.008162064477801323 0.0714612826704979 0.17796409130096436 0.09687507897615433 0.27439048886299133 -0.004797547589987516 0.042475420981645584 0.21204473078250885 0.1718662828207016 -0.04828992858529091 -0.12435734272003174 0.08778087049722672 -0.03176288306713104 0.11910692602396011 0.015638599172234535 0.0880633220076561 -0.0455264076590538 0.05357258766889572 0.20274683833122253 0.2262348085641861 0.0705682635307312 -0.34445562958717346
a -0.16154317557811737 -0.09629197418689728 -0.17634665966033936 0.026054536923766136 0.13421060144901276 -0.13386170566082 -0.045063868165016174 0.08871572464704514 -0.36326026916503906 -0.08492038398981094 -0.29523754119873047 -0.013155950233340263 0.09462657570838928 0.0052299946546554565 0.012372412718832493 -0.095716193318367 -0.27923116087913513 -0.09913551807403564 -0.04186132922768593 0.33334723114967346 -0.02162753790616989 0.1840837001800537 -0.1853468120098114 -0.29823267459869385 0.5384901165962219 0.3328113555908203 0.3589423894882202 0.16119284927845 -0.11523765325546265 0.2341289520263672 -0.07985636591911316 0.4635448157787323 0.1720367670059204 0.5550742745399475 -0.2090436816215515 0.24487696588039398 -0.10036448389291763 0.35238584876060486 0.2565024495124817 -0.05840323865413666 -0.2345219999551773 -0.44019392132759094 -0.0065443143248558044 -0.11334075033664703 -0.04013975337147713 -0.22279898822307587 0.0351950041949749 0.10248357802629471 -0.09132850915193558 0.17626476287841797 -0.10344993323087692 0.12302131950855255 -0.3560850918292999 0.10636166483163834 -0.007974295876920223 -0.1815834790468216 0.14092616736888885 -0.07400315999984741 -0.14188097417354584 0.23968638479709625 -0.2677624225616455 -0.14407910406589508 0.03200875222682953 0.3066019117832184 0.16010108590126038 0.24338398873806 0.14755834639072418 -0.07291959971189499 -0.17006132006645203 0.2723035216331482 0.1998712718486786 -0.10097731649875641 0.16130322217941284 -0.06514760851860046 0.21973547339439392 0.025675645098090172 -0.052133552730083466 0.20374879240989685 -0.2615061402320862 -0.18561358749866486 0.016859591007232666 -0.2269720882177353 -0.23695889115333557 -0.061637043952941895 -0.42081978917121887 -0.16193680465221405 -0.010852355509996414 0.40791499614715576 -0.18899571895599365 0.46979841589927673 -0.023901496082544327 0.018722698092460632 -0.14262163639068604 -0.2431364208459854 -0.2818709909915924 -0.18715471029281616 0.09846384078264236 -0.30649513006210327 -0.15322096645832062 0.10146786272525787
think 0.4479825794696808 0.1107204481959343 -0.1207638829946518 0.17665144801139832 0.37199845910072327 -0.07764455676078796 0.09060293436050415 0.06564880907535553 0.21131400763988495 -0.08595389872789383 -0.027024101465940475 0.1592777967453003 0.36500248312950134 -0.17454218864440918 -0.0033011941704899073 0.47016167640686035 -0.07442199438810349 -0.039593812078237534 -0.14081941545009613 -0.15326827764511108 -0.16072474420070648 -0.08005479723215103 0.2951756715774536 -0.04538201540708542 -0.20700526237487793 -0.014923649840056896 0.006548108067363501 0.17432667315006256 -0.0451175756752491 0.030887626111507416 0.06513645499944687 0.1273488700389862 -0.13481956720352173 -0.07971195131540298 -0.04430649057030678 -0.19070923328399658 -0.026964392513036728 0.14286521077156067 -0.31372159719467163 0.10228169709444046 -0.1741655021905899 0.34681642055511475 -0.022552361711859703 0.14273549616336823 0.03539223223924637 0.36849698424339294 -0.030611513182520866 0.14686104655265808 0.1450921595096588 0.20167890191078186 0.015579892322421074 0.04461360722780228 -0.041329167783260345 0.15931029617786407 0.09139014035463333 0.16991616785526276 -0.03574811667203903 -0.17707793414592743 -0.1058277115225792 0.07639063149690628 0.19903941452503204 -0.20325897634029388 0.033775694668293 0.16557517647743225 -0.20231278240680695 -0.16186083853244781 -0.013760422356426716 -0.08119227737188339 0.04383691027760506 0.01957266591489315 0.29002487659454346 -0.22509902715682983 -0.08068707585334778 0.04056036099791527 -0.04479219764471054 -0.0053249988704919815 0.4715110659599304 0.11386501789093018 0.036960143595933914 -0.25587010383605957 -0.19585375487804413 0.07654893398284912 0.03157215565443039 0.11919507384300232 -0.10983724892139435 -0.030590713024139404 0.10295715928077698 -0.06367503106594086 -0.09528353065252304 0.2702636122703552 -0.04805486649274826 -0.17503385245800018 0.2212471067905426 -0.04232042655348778 -0.18071025609970093 -0.21460534632205963 -0.08295552432537079 0.006920188199728727 0.08709154278039932 0.0016073264414444566
set 0.05369694530963898 -0.1273697167634964 -0.21321284770965576 -0.03678777441382408 0.28068825602531433 0.273762047290802 -0.1466221958398819 -0.0454413965344429 0.22211946547031403 -0.21024303138256073 0.33561941981315613 -0.15624329447746277 0.21658945083618164 0.11404050886631012 0.047509726136922836 0.004556222353130579 -0.061297934502363205 0.16505630314350128 -0.051175545901060104 0.14302365481853485 -0.12524718046188354 -0.052118998020887375 0.08607561141252518 -0.07058326154947281 0.02371842786669731 0.04727073013782501 -0.06645284593105316 -0.04835600033402443 -0.04837696626782417 0.11211524158716202 0.10837425291538239 -0.021453045308589935 0.06224040314555168 -0.12978659570217133 0.1661110818386078 -0.133788600564003 0.004976216703653336 -0.11598566174507141 -0.017194414511322975 -0.16034433245658875 0.03445707634091377 -0.2372090369462967 -0.0152558833360672 0.061953943222761154 -0.14524804055690765 -0.022847400978207588 -0.014487807638943195 -0.05035635828971863 -0.03145695850253105 -0.009152591228485107 0.010843640193343163 0.0680222287774086 0.18713268637657166 0.005409408826380968 0.20842722058296204 0.03598615154623985 -0.005016340408474207 -0.033587746322155 -0.1204618290066719 0.1051352322101593 0.05003421753644943 0.07119790464639664 -0.17781423032283783 0.06953397393226624 0.05772441625595093 0.025434449315071106 -0.13257798552513123 0.15897884964942932 0.1491008847951889 0.1082613468170166 0.06337707489728928 -0.03888048604130745 -0.07531870901584625 0.04239589720964432 0.16405600309371948 -0.057446468621492386 -0.1327509731054306 -0.13529488444328308 -0.06359895318746567 0.12599147856235504 -0.03924984112381935 -0.07111937552690506 0.018624497577548027 -0.011959915980696678 0.1307118684053421 -0.07615885883569717 -0.002453898312523961 -0.11160068213939667 0.051853060722351074 -0.19324767589569092 0.06574316322803497 0.16043178737163544 -0.11266942322254181 -0.05653369799256325 0.07360300421714783 -0.0781562402844429 0.17243266105651855 -0.12859474122524261 0.008209828287363052 0.2774551212787628
